{
  "featureNames" : [
    "bias",
    "isLiteral",
    "isDirect",
    "isTrailingPunctuation",
    "isLayoutLetterTail",
    "isWrappingPunctuation",
    "candidateLanguageRU",
    "currentLanguageRU",
    "sourceLength",
    "candidateLength",
    "sourceWordKnown",
    "sourceWordScore",
    "sourceExtended",
    "sourceCharacterScore",
    "candidateWordKnown",
    "candidateWordScore",
    "candidateExtended",
    "candidateCharacterScore",
    "characterAdvantage",
    "sourceFrequentLexicon",
    "candidateFrequentLexicon",
    "candidateBelief",
    "beliefAdvantage",
    "phraseKnown",
    "phraseScore",
    "compoundKnown",
    "compoundScore",
    "bothKnown",
    "isShort",
    "isSingle",
    "prefixLength",
    "suffixLength",
    "preservesTypedSuffix",
    "usesTargetPunctuation",
    "isFullOpposite",
    "preservesFullSourcePrefix",
    "preservesFullSourceSuffix",
    "usesFullTargetPrefix",
    "usesFullTargetSuffix",
    "fullOppositeKnown",
    "preservedSuffixKnown",
    "targetPunctuationKnown",
    "suffixTerminal",
    "suffixSeparator",
    "suffixWrapper",
    "suffixOtherDecoration",
    "channelLiteralFraction",
    "channelOppositeFraction",
    "channelSharedFraction",
    "channelTransitions",
    "candidateENCharHash0",
    "candidateENCharHash1",
    "candidateENCharHash2",
    "candidateENCharHash3",
    "candidateENCharHash4",
    "candidateENCharHash5",
    "candidateENCharHash6",
    "candidateENCharHash7",
    "candidateENCharHash8",
    "candidateENCharHash9",
    "candidateENCharHash10",
    "candidateENCharHash11",
    "candidateENCharHash12",
    "candidateENCharHash13",
    "candidateENCharHash14",
    "candidateENCharHash15",
    "candidateENCharHash16",
    "candidateENCharHash17",
    "candidateENCharHash18",
    "candidateENCharHash19",
    "candidateENCharHash20",
    "candidateENCharHash21",
    "candidateENCharHash22",
    "candidateENCharHash23",
    "candidateENCharHash24",
    "candidateENCharHash25",
    "candidateENCharHash26",
    "candidateENCharHash27",
    "candidateENCharHash28",
    "candidateENCharHash29",
    "candidateENCharHash30",
    "candidateENCharHash31",
    "candidateRUCharHash0",
    "candidateRUCharHash1",
    "candidateRUCharHash2",
    "candidateRUCharHash3",
    "candidateRUCharHash4",
    "candidateRUCharHash5",
    "candidateRUCharHash6",
    "candidateRUCharHash7",
    "candidateRUCharHash8",
    "candidateRUCharHash9",
    "candidateRUCharHash10",
    "candidateRUCharHash11",
    "candidateRUCharHash12",
    "candidateRUCharHash13",
    "candidateRUCharHash14",
    "candidateRUCharHash15",
    "candidateRUCharHash16",
    "candidateRUCharHash17",
    "candidateRUCharHash18",
    "candidateRUCharHash19",
    "candidateRUCharHash20",
    "candidateRUCharHash21",
    "candidateRUCharHash22",
    "candidateRUCharHash23",
    "candidateRUCharHash24",
    "candidateRUCharHash25",
    "candidateRUCharHash26",
    "candidateRUCharHash27",
    "candidateRUCharHash28",
    "candidateRUCharHash29",
    "candidateRUCharHash30",
    "candidateRUCharHash31",
    "candidateENContextHash0",
    "candidateENContextHash1",
    "candidateENContextHash2",
    "candidateENContextHash3",
    "candidateENContextHash4",
    "candidateENContextHash5",
    "candidateENContextHash6",
    "candidateENContextHash7",
    "candidateENContextHash8",
    "candidateENContextHash9",
    "candidateENContextHash10",
    "candidateENContextHash11",
    "candidateENContextHash12",
    "candidateENContextHash13",
    "candidateENContextHash14",
    "candidateENContextHash15",
    "candidateENContextHash16",
    "candidateENContextHash17",
    "candidateENContextHash18",
    "candidateENContextHash19",
    "candidateENContextHash20",
    "candidateENContextHash21",
    "candidateENContextHash22",
    "candidateENContextHash23",
    "candidateENContextHash24",
    "candidateENContextHash25",
    "candidateENContextHash26",
    "candidateENContextHash27",
    "candidateENContextHash28",
    "candidateENContextHash29",
    "candidateENContextHash30",
    "candidateENContextHash31",
    "candidateRUContextHash0",
    "candidateRUContextHash1",
    "candidateRUContextHash2",
    "candidateRUContextHash3",
    "candidateRUContextHash4",
    "candidateRUContextHash5",
    "candidateRUContextHash6",
    "candidateRUContextHash7",
    "candidateRUContextHash8",
    "candidateRUContextHash9",
    "candidateRUContextHash10",
    "candidateRUContextHash11",
    "candidateRUContextHash12",
    "candidateRUContextHash13",
    "candidateRUContextHash14",
    "candidateRUContextHash15",
    "candidateRUContextHash16",
    "candidateRUContextHash17",
    "candidateRUContextHash18",
    "candidateRUContextHash19",
    "candidateRUContextHash20",
    "candidateRUContextHash21",
    "candidateRUContextHash22",
    "candidateRUContextHash23",
    "candidateRUContextHash24",
    "candidateRUContextHash25",
    "candidateRUContextHash26",
    "candidateRUContextHash27",
    "candidateRUContextHash28",
    "candidateRUContextHash29",
    "candidateRUContextHash30",
    "candidateRUContextHash31",
    "literalKeyPairHash0",
    "literalKeyPairHash1",
    "literalKeyPairHash2",
    "literalKeyPairHash3",
    "literalKeyPairHash4",
    "literalKeyPairHash5",
    "literalKeyPairHash6",
    "literalKeyPairHash7",
    "literalKeyPairHash8",
    "literalKeyPairHash9",
    "literalKeyPairHash10",
    "literalKeyPairHash11",
    "literalKeyPairHash12",
    "literalKeyPairHash13",
    "literalKeyPairHash14",
    "literalKeyPairHash15",
    "oppositeKeyPairHash0",
    "oppositeKeyPairHash1",
    "oppositeKeyPairHash2",
    "oppositeKeyPairHash3",
    "oppositeKeyPairHash4",
    "oppositeKeyPairHash5",
    "oppositeKeyPairHash6",
    "oppositeKeyPairHash7",
    "oppositeKeyPairHash8",
    "oppositeKeyPairHash9",
    "oppositeKeyPairHash10",
    "oppositeKeyPairHash11",
    "oppositeKeyPairHash12",
    "oppositeKeyPairHash13",
    "oppositeKeyPairHash14",
    "oppositeKeyPairHash15",
    "channelCost",
    "contextSameLanguageRatio",
    "lastContextSameLanguage",
    "sourceScriptMatches",
    "candidateScriptMatches",
    "sourceShapeProtected",
    "candidateShapeProtected",
    "capsLock",
    "englishSourceFrequent",
    "englishSourceDictionary",
    "englishSourcePlausible",
    "englishSourceUnlikely"
  ],
  "featureSchemaVersion" : 6,
  "formatVersion" : 2,
  "hiddenBias" : [
    0.09468473813973181,
    -0.11625215626837014,
    0.2743836843942893,
    0.20099100697547298,
    -0.29832165580116077,
    0.23762404744960475,
    -0.09143388794370057,
    -0.16553092291554933
  ],
  "hiddenWeights" : [
    [
      0.07747206818602762,
      -0.08153347200289951,
      -0.34260354554289185,
      -0.14877744129373438,
      0.45452935901473174,
      0.43192938561028377,
      0.14238575836576095,
      0.15354695250616532,
      -0.015434700792167352,
      -0.06811518120354952,
      0.14210670398567973,
      0.05529492127780136,
      0.21519318875575139,
      -0.08401567112875255,
      -0.3509831681064378,
      -0.46930969560470526,
      -0.562097491652956,
      -1.3788198809676027,
      -1.7338161328975423,
      0.008017366175280387,
      -0.3000631293537752,
      0.3558578580040403,
      0.5737423927921657,
      -0.08971632011117567,
      -0.026072076463645275,
      -0.24731912350531224,
      -0.10348419957850931,
      -0.22186676974105046,
      0.31927925195520857,
      0.18462603621401524,
      0.18726508247068546,
      0.10062813789137862,
      -0.10261542109027175,
      -0.31274822062419266,
      -0.18899953622642254,
      -0.3017915068737315,
      -0.6464660934562878,
      -0.25311575899835925,
      0.02776429243639804,
      -0.11043848875317037,
      0.2024969500714414,
      -0.022941801363348367,
      0.09841731838469953,
      -0.4965782985335158,
      1.3375210447436074,
      0.053993491217627886,
      -0.07624004581106064,
      0.05905060462588056,
      0.2353501202234736,
      -0.31085046134769995,
      0.10425217137174111,
      0.39218268630926834,
      -0.11383083071427105,
      0.11160784798819112,
      -0.10702214627140401,
      0.09300972160462072,
      0.13299173263424824,
      -0.0856971379663958,
      -0.07192220647107513,
      0.1269329925997399,
      0.029678367642768485,
      0.34364085656605364,
      0.10367323694010724,
      0.12447156827820306,
      -0.20225381177306698,
      0.16255303024410223,
      0.017877318068484197,
      0.18499440819023993,
      -0.3358106042978741,
      0.23194600041502414,
      -0.1493788382372938,
      0.11458023896699397,
      -0.055309846602383285,
      0.2353644542645794,
      -0.30992200934755876,
      -0.043308016829121034,
      -0.1497868031759103,
      0.18212291156665694,
      0.061972734718539466,
      -0.10009755459043879,
      -0.021745325126011662,
      0.08805323666272227,
      -0.19037802591620034,
      -0.14821668081943118,
      0.6242645554016205,
      -0.008146318703802976,
      -0.39057664605400166,
      0.017680943072505985,
      0.11352146633680095,
      -0.21748380899175498,
      -0.22627055141736271,
      0.02423454524266797,
      0.2682109719101256,
      0.06028321461594377,
      0.015156298791643827,
      0.07498126914450538,
      0.004000407321934806,
      -0.003069642928428681,
      -0.030321974634290382,
      0.4205836761380374,
      0.33989143163323576,
      -0.4764863861681342,
      -0.2424954692456865,
      0.3718542215541172,
      0.01587752643743242,
      -0.016329109374810497,
      0.5112126677669059,
      0.05062687408205326,
      0.07451251671026957,
      0.04709220148488597,
      -0.017306433463866712,
      -0.6328634062964158,
      0.06190190082444032,
      -0.013616269712366985,
      0.04478433574824696,
      -0.022862635317498593,
      -0.04606897861657314,
      0.012958586579860038,
      0.10110218504705494,
      0.10168403762099537,
      -0.04202184350438062,
      -0.00138337830497359,
      0.12645451240061184,
      0.007061327022464806,
      -0.05896769883941816,
      -0.08796663561781543,
      0.062297410909312394,
      -0.06817266555035614,
      0.034341099581384565,
      0.06350928368396884,
      -0.14616901502197144,
      0.002103746635747153,
      0.02438090105419123,
      -0.04514048341096324,
      0.16176095259789866,
      0.08934017131847684,
      0.08112555342907041,
      -0.0035069547275269077,
      0.023107552289410947,
      0.04349928506568547,
      -0.01200138208086686,
      -0.09281829295731045,
      0.07738500653000499,
      0.08409630829961615,
      -0.057702299851467034,
      -0.010970568998504338,
      -0.025190825972136285,
      0.17154012929796283,
      -0.029495369954913985,
      0.09937924994996236,
      -0.3158958275403106,
      -0.045936710768821463,
      -0.24474702449612476,
      0.265989392308551,
      -0.1278158932557556,
      0.17453956591533035,
      0.034784231259749256,
      0.14636594170703757,
      -0.034348283712532256,
      -0.2749053890543953,
      -0.12081989383869975,
      -0.13500934189250524,
      -0.20986376336703277,
      0.19520294548528316,
      -0.267035046248866,
      0.1156567979369651,
      -0.007169554747763005,
      0.18359051759958792,
      -0.21540903223900157,
      0.19544076097022284,
      -0.2030205571018738,
      0.047814777247257086,
      -0.0018887510735402769,
      0.11877422232030896,
      -0.17938602257396252,
      -0.1256049237910344,
      0.030018194541929676,
      0.29585871876421865,
      0.006730400760751123,
      0.30589688602111453,
      0.00040479489308918067,
      2.75693333630497e-132,
      1.3337596385377483e-131,
      0.0634012630613444,
      0.07861861820776717,
      -0.263437790386932,
      -0.26133686912663606,
      -0.5212566732714647,
      -0.0009073677500974777,
      -0.11169816892038786,
      -0.12392816044878967,
      0.1496603064051226,
      -0.016367527566416008,
      0.39041077867941293,
      -0.0065102313337961236,
      -0.223811527204455,
      3.724709771051293e-05,
      5.125147038057389e-131,
      1.4842569127194946e-130,
      0.23460747013677505,
      -0.12556014582635108,
      0.12129054587674973,
      0.2400574949733412,
      0.007585300627202089,
      3.6975620651168376e-05,
      0.11487314454423932,
      0.05644456347662776,
      0.22126870039984245,
      0.013945621251541633,
      -0.26892511615899933,
      -0.020561581823459872,
      -0.3986548149580642,
      -0.37762569059313217,
      0.11255753306327203,
      0.10948349008437626,
      -0.15138223376743987,
      0.512015847774113,
      -0.3608427550897445,
      -0.18911436368668483,
      0.1406642630457486,
      -0.22688782256880596,
      0.3191043339933891
    ],
    [
      -0.21293969018368886,
      0.2200955038062199,
      -0.038652639640231606,
      0.2163228481912718,
      -0.7596385994279059,
      -0.3802987976629576,
      0.36667734853459133,
      0.5400165277853929,
      -0.017884501913004926,
      0.20770680533008562,
      0.4698109180372635,
      0.407091589125614,
      -0.017073750176156137,
      -0.04921453630531066,
      0.3445641761229066,
      0.28357328262087966,
      0.3785045598908081,
      0.5902948748158588,
      0.4717781294099923,
      -0.0015985848858220528,
      0.11986855316858215,
      -0.0927809316469032,
      -0.2996512307750192,
      0.10456401649457132,
      0.05961051289679022,
      0.006773540414064711,
      0.0025187889373125376,
      0.32419188402901716,
      0.2628533894672486,
      -0.7678099748044972,
      -0.26194560369155145,
      0.0055261003882986146,
      -0.3030363615130474,
      0.2549400397445703,
      0.10480917376423786,
      -0.15267570963579524,
      0.07545834952924915,
      0.645136712348519,
      0.18726494119483583,
      0.07144520251073015,
      0.31472717355249547,
      0.2094864506175445,
      0.5192001790351677,
      0.24429420870506405,
      -0.8598997852225457,
      -0.15104390453941108,
      -0.4757221582559883,
      0.10982480720733648,
      -0.14616579068066346,
      0.4703475012436603,
      -0.04580973633099901,
      -0.2818738932924924,
      -0.20198186712062444,
      -0.035968656855692775,
      0.19181848333684387,
      -0.1943587261923345,
      -0.06646804794217542,
      -0.002411094597270348,
      0.013766114072930992,
      -0.1920452166022077,
      -0.10898217811922863,
      -0.249375505339741,
      0.08477339813988394,
      -0.0414326147648359,
      0.32704436257626823,
      -0.17991555383051483,
      -0.12729085808441887,
      -0.1506741495434741,
      -0.08156129310325654,
      -0.1234615449770124,
      -0.0417445958443582,
      -0.1720122635238003,
      -0.1644676629911162,
      -0.36537182777482363,
      -0.016231283469453017,
      -0.0008720051086356184,
      0.0724080940210647,
      -0.11276516630817347,
      -0.18594905758754704,
      -0.10328887891204594,
      0.1426082705357391,
      -0.2587894316610789,
      -0.11176162833498147,
      0.10122584570089306,
      -0.014533688079546473,
      -0.07298003141380799,
      -0.013700554074249815,
      -0.15893740639627452,
      -0.0993043468177269,
      0.28543746426846733,
      0.2127454021224342,
      0.11629331431570569,
      0.02686923657880708,
      0.10698504362914495,
      0.05144520786611361,
      -0.6285685030427731,
      0.20109025780633155,
      -0.22796312786178172,
      0.2246239846712452,
      -0.28656917148458116,
      -0.4327045124170843,
      0.3873707749126524,
      0.13314951836556874,
      0.0007723742032701348,
      0.19598950556258085,
      0.14314034941791845,
      0.022870314032163757,
      -0.20911118807106904,
      -0.12471167108507719,
      0.1532024110531533,
      0.4549913584436048,
      0.06411469862931024,
      -0.13902180842892792,
      -0.2956484684740894,
      -0.06588207923059122,
      0.03993779629819314,
      0.15098696975529513,
      -0.03169002025000153,
      -0.12926661202640383,
      -0.08545050895491034,
      0.009735948524118758,
      0.09803765931814241,
      -0.09679714258778085,
      -0.001132883810818327,
      0.11623969395017844,
      0.20866385037288232,
      0.008187644801437376,
      0.06107737577926721,
      -0.1621331532515609,
      -0.03888890995098963,
      0.164634128485346,
      -0.1566717958406394,
      -0.027436208478352,
      0.09064734407876776,
      -0.15865781069822826,
      -0.12700020117921373,
      -0.20926770220193347,
      0.04521687725316542,
      -0.0515110736465762,
      -0.08498176585849197,
      0.043371666611081085,
      0.10937261313334633,
      0.05627982073253332,
      0.011836808900796334,
      0.04856821542200132,
      0.13260443791968124,
      0.13070151403008745,
      -0.0924933981428358,
      -0.12225225294226343,
      0.0242640420774047,
      0.119442726290682,
      0.20835590030985698,
      -0.2170027521028104,
      -0.0400572861855404,
      0.06436149062915444,
      0.14864308898101988,
      0.06325232650946035,
      0.09365370753546921,
      0.06464207901699394,
      -0.24582070868451844,
      -0.33413644405789505,
      -0.25565085590678344,
      0.15618583805987485,
      0.14207107196981894,
      0.43712388149403897,
      0.1119470928947762,
      -0.22755006231604974,
      -0.03314254887356597,
      -0.13765784616899554,
      0.20200937440345956,
      -0.18078605292142477,
      -0.0089964247449429,
      -0.03305021052159483,
      -0.21502336542284542,
      -0.0075714205627791156,
      -0.0564204669927381,
      -0.02857337221512579,
      -0.22812492126686879,
      -0.014213777466667632,
      0.07600338704889333,
      -0.0006109764905179807,
      -3.283674900855395e-132,
      -2.510605395409633e-132,
      0.36020238193840054,
      -0.2437063572759782,
      -0.16971290363142777,
      0.21286062559556554,
      -1.0026895739735504,
      0.0017388447609628852,
      0.13343039213605373,
      0.07024624491821764,
      -0.1208259730893645,
      0.011817104349775006,
      0.14051615315810448,
      0.00778947038414871,
      -0.3587861781329609,
      0.001227510684302314,
      9.306612572444214e-132,
      -1.7757890070342797e-132,
      -0.05142226321145534,
      0.13741966742150274,
      0.016276454314606018,
      -0.24191986277933827,
      0.5903274863351247,
      -0.00020752445461272976,
      -0.08149467566792803,
      -0.034563424539957116,
      0.11930489826927258,
      -0.014307984363374875,
      -0.14679992792930013,
      0.3965253007258163,
      -0.019492136283892646,
      -0.0990378992844302,
      -0.1610293224834807,
      -0.11383308913421405,
      -0.31362411299964915,
      -0.7342524960235809,
      0.07884819884520977,
      0.3796990310355575,
      0.019956752611870448,
      -0.5530768802552263,
      -0.542183829255733
    ],
    [
      0.2736934950006142,
      -0.3764331150838887,
      -0.17015445033913876,
      0.0774035042787541,
      0.6582425043907554,
      0.49946942980446707,
      0.23782826034179255,
      -0.2676171599738142,
      -0.6210908292586549,
      -0.7905987257955617,
      0.12904483784767493,
      0.2834146981424606,
      -0.03612426436577565,
      -0.17815551190117293,
      -0.3207502222216654,
      -0.3157254939295949,
      -0.41199910929536626,
      -0.7664876821443877,
      -0.6526289695760185,
      0.11728110162299332,
      -0.3070379798727996,
      0.3476509665409081,
      0.12746026828092433,
      -0.13585394366129763,
      -0.10637716088658422,
      -0.027368127880549202,
      -0.0019095515332441836,
      0.3415333137273261,
      0.07921369016735229,
      0.8301709365053064,
      0.28990821403236067,
      0.2038426890499482,
      0.29483324563217095,
      -0.03201574159966566,
      -0.08964882027247631,
      0.20968189740804802,
      -0.34387980107276245,
      -0.5749988823619309,
      -0.12257036951450938,
      -0.19095998377794077,
      -0.333498218671813,
      -0.10164965963685163,
      0.019818254280571202,
      -0.2879367515320197,
      0.8450347893759299,
      0.35187507591577877,
      0.004790336479907526,
      0.19704725325333733,
      -0.07004618047902081,
      0.3577694275274507,
      0.0010912666121880516,
      0.4210339795534321,
      -0.016396469952216802,
      0.18826343905036566,
      0.059448309949896215,
      0.011845626029144867,
      0.013528166762090581,
      -0.036982800212921274,
      0.13621394194137434,
      0.05776760196469302,
      0.009207244352741391,
      0.3360799860778061,
      0.08845345308493976,
      0.021176547893761773,
      -0.29662121748696435,
      0.06256883551214969,
      0.15065589330122064,
      0.19603307508502557,
      -0.39517796137820455,
      0.1926946733012161,
      -0.11975987703761962,
      0.11342664397114868,
      0.008381479102284357,
      0.1693193652545048,
      -0.2711987574067568,
      -0.11235381230973297,
      -0.24491499967977626,
      0.26046534992477666,
      -0.19215059259754877,
      -0.1249148463405436,
      -0.01395272719493671,
      -0.004422194647328836,
      0.09467014811526454,
      -0.1837657838316892,
      -0.45892008465897194,
      0.05467959653004687,
      -0.01586262507991438,
      -0.03500596822920021,
      -0.04968416986322233,
      -0.37913005117574966,
      0.10638826396395842,
      0.26186783777229605,
      -0.2769947332391193,
      0.056115096960729346,
      -0.03207646686270358,
      0.2248472416360057,
      -0.18414459371503053,
      0.34269418332965146,
      -0.33229680731835465,
      0.11537703595556892,
      0.15914504296177587,
      -0.47787307909029797,
      0.2276520081321464,
      -0.13941245407332575,
      -0.11343858489154814,
      -0.24699054762702627,
      0.08337756323617326,
      0.4512979171882563,
      0.1557895149445993,
      0.26152605188646916,
      -0.05146535377786684,
      0.27762328516252816,
      0.29729312421352305,
      0.117452051326089,
      0.03719891104717984,
      0.0010917404077061992,
      -0.1513896734783054,
      -0.07890617791156836,
      0.08214248454187403,
      0.031287495931352785,
      0.008570411093081457,
      0.15646268598222016,
      -0.08680545687775303,
      -0.05672537473901777,
      0.024618581928137127,
      -0.20307740412144146,
      0.07204293299180865,
      -0.04996081902619096,
      -0.028234321928883855,
      0.11483481461401526,
      -0.02153983202211167,
      -0.13122731253593037,
      -0.04711274590438635,
      -0.0021903437088059696,
      0.14742924568738808,
      0.1068423930340014,
      -0.10454594285698966,
      0.04464903996000482,
      0.043078563305015534,
      -0.004593254854397626,
      0.02276442077086463,
      -0.2622954211053957,
      -0.11063789745795552,
      -0.012117474446437126,
      0.11622273435918776,
      0.16702113847540415,
      -0.1030578081363006,
      -0.19820858693405766,
      0.05368303559992856,
      -0.38133973397986887,
      0.19376773277290885,
      -0.08778662319331082,
      0.5462755133710174,
      -0.2243477028191724,
      0.019096361075992614,
      -0.1394986141722679,
      -0.09590858497358005,
      -0.12696887149040087,
      0.08139753860145493,
      0.2738213471735401,
      0.22710436500303935,
      0.3341677457236506,
      0.17169817390226624,
      -0.15094041974831596,
      0.06992393282772771,
      0.010168124858166214,
      0.03973806166097806,
      -0.10040808172124256,
      -0.06483587588322481,
      -0.04057695947725939,
      0.1104664855163435,
      0.03915272364481477,
      0.16488956800988105,
      0.022537757492135147,
      0.06721158948135203,
      0.16397699056947607,
      -0.061232379081248275,
      -0.226651286886244,
      0.015833901692821485,
      -0.10044305859788924,
      0.0013979231166172548,
      1.3361941728177896e-131,
      -2.534882456743447e-131,
      -0.597448961500472,
      0.31775675512959767,
      -0.16540229152222183,
      -0.32715599320416555,
      -0.00770740090389716,
      -0.0018361599396237304,
      -0.13635345149692357,
      -0.08316938973939222,
      0.18707528611842628,
      -0.018342428615941438,
      -0.01931853415985365,
      -0.004298881343449962,
      0.16057012535083987,
      -0.0010124613767671274,
      9.028223016933976e-131,
      -3.65500793728843e-131,
      0.20102383692012915,
      -0.3117748429638405,
      0.1674440844720887,
      0.18395319983806577,
      -0.5096456089264366,
      8.382470068313813e-05,
      0.1426706680678622,
      0.0729608422140336,
      0.42513757237829747,
      0.018332203049886264,
      0.09395596194022528,
      -0.5205161327720795,
      -0.33531490746767645,
      -0.25441978231092666,
      0.2500587864613642,
      0.17092567785672966,
      -0.2724770116413531,
      0.5157739568062035,
      0.056815023790511135,
      -0.27029077693142395,
      -0.34622262773031565,
      0.5128211473450481,
      0.4958108819476634
    ],
    [
      0.21754630172219527,
      -0.30886984223224284,
      -0.03424414001782277,
      0.21559154190900068,
      0.17353693710545845,
      0.24156488244114435,
      -0.1771071396790954,
      -0.379883888422994,
      -0.45218463059550956,
      -0.5400151703942468,
      -0.26670470098606797,
      -0.2770864422034413,
      0.2972583426059682,
      0.1270525098595522,
      -0.39532934984178875,
      -0.2639388487819674,
      -0.8392087743181246,
      -0.8573139482055333,
      -1.0031777608052346,
      -0.05897671610603084,
      0.028841768399527346,
      0.17901129918933575,
      0.22174234029561316,
      -0.09095153903625279,
      -0.0733733637281707,
      -0.15667858561154135,
      -0.06876459637550755,
      -0.7154372983745689,
      -0.05334725822608651,
      0.7465278858949473,
      0.18833657293267606,
      0.31859836294635635,
      0.41516441560982476,
      -0.38288667652757846,
      -0.20565857029344045,
      -0.03666523879844495,
      0.1108056343405353,
      -0.2644143929800298,
      -0.29366538220478633,
      -0.2767337973747451,
      0.18737846009069492,
      -0.1553707934433013,
      -0.3153414919877801,
      0.021662406753052924,
      1.0583411511933551,
      0.2636830573090957,
      0.4459921401540102,
      -0.17031903176482704,
      0.1127527166183002,
      -0.4397199129055447,
      0.03911990041615389,
      0.3069929464641416,
      0.22154979374702125,
      -0.009970632092407838,
      -0.18762866611124154,
      0.19507682521372718,
      -0.005656090230837001,
      0.005405112897459009,
      -0.20104585432063027,
      0.019804279086413388,
      -0.07400875036396902,
      0.3909886064750034,
      0.057042166647733,
      0.08078128023210578,
      -0.20067548994394838,
      0.2529794897380436,
      0.16512569498591093,
      0.10950986318076288,
      -0.004374528358947762,
      0.1703203498143397,
      -0.04236812572884909,
      0.09961573230745137,
      0.1180429008148689,
      0.19746964085834753,
      -0.09368559543999888,
      -0.012896364763813142,
      -0.19594620671155819,
      0.24469633298333998,
      0.011870463275758086,
      -0.0829123772338215,
      -0.059958116867896726,
      0.1309327699046389,
      -0.09805108181011477,
      -0.17347744170661983,
      0.10925526682965364,
      0.020964539601122517,
      -0.04843397984256979,
      0.161399651978726,
      0.255227898217731,
      -0.18473169934805664,
      -0.4106239059588504,
      0.19046634130130577,
      0.02959210645450724,
      0.19115301556152023,
      -0.0014204462355955723,
      0.4720281824687687,
      0.11799131611027319,
      0.37755084950602674,
      -0.19758984344762925,
      0.2543638334539629,
      0.31209138072841175,
      -0.4367940934044563,
      0.1942218757098121,
      0.17322887808353304,
      -0.33592406643024314,
      -0.32999359114404014,
      0.23805200494039888,
      0.29110434873250024,
      0.04018644636223992,
      -0.057691316207460826,
      -0.1984719511384637,
      -0.19725767047838058,
      0.029761721268615135,
      0.1098394936703997,
      0.13833189779269112,
      0.021032557572393328,
      0.07349083005319461,
      -0.012260115262878983,
      0.10167626213434376,
      0.08466703733461688,
      -0.0026080503553436215,
      -0.01763688336460225,
      0.13993888924299286,
      0.07617990568673791,
      -0.01711547419424054,
      -0.12578979925776215,
      0.10571607712308402,
      -0.029402450632968088,
      0.110218128365152,
      0.020256236661434796,
      -0.1491988656899153,
      0.010970666916112202,
      -0.03560272920371862,
      -0.12007383435766343,
      0.18164092503098714,
      0.03392404292800174,
      0.1521515326025928,
      -0.000781469810864299,
      0.2174863721351395,
      -0.042576058961072846,
      0.08481523009670726,
      -0.07935478552320532,
      0.12417224680510978,
      0.016141985800398426,
      0.0014583912484077283,
      -0.07639956686945859,
      0.1346809228001758,
      0.2987993319818463,
      -0.008675834234268195,
      0.18841471799366938,
      -0.09458781245495947,
      -0.0786936100572378,
      -0.005847192544976135,
      -0.18876556186691726,
      -0.005145566832376034,
      0.10101902441575777,
      -0.13598547666872698,
      0.1201456292693058,
      -0.12402666509204921,
      0.032245002268811856,
      0.33754013192947424,
      -0.12219013676421223,
      -0.1722086301324094,
      -0.008930212307380385,
      -0.11869875892064406,
      0.03084823517697138,
      0.20175500186517792,
      0.10050487699705,
      0.014443989913487122,
      -0.11780900277025225,
      0.0549263403051742,
      0.10008062689741262,
      -0.19155650237018093,
      0.24878019207796206,
      -0.1478525930360043,
      0.047884422099683466,
      -0.045211412297532026,
      0.07661237865162937,
      0.006745237957666923,
      0.15378971726920043,
      0.00034229060798228233,
      5.697737759200406e-132,
      1.200290432297812e-132,
      -0.4410876630316408,
      0.07558719956789188,
      -0.06722072806445445,
      -0.1906486994749758,
      0.6150013825242889,
      -0.001110786300149664,
      -0.10541773284640683,
      -0.035053243700589966,
      0.36558580896656906,
      -0.007545949091513165,
      0.0990566929384812,
      -0.007481919070665388,
      0.2155838823913114,
      -7.203807911072402e-05,
      1.471219689354972e-131,
      -1.602694750877923e-131,
      0.18829082565304242,
      -0.08049822780190868,
      0.05296002353764378,
      0.19822274122769457,
      -0.11603861221734875,
      4.979340998711811e-05,
      0.08046683241846428,
      0.051591402469741275,
      -0.26070477926577135,
      0.013697477859945937,
      0.13791756079631665,
      -0.37353438323303406,
      -0.25935917254291413,
      -0.16232823863221346,
      0.12830890124938674,
      0.16727016152690685,
      0.15160689862405463,
      0.7783966574530231,
      -0.2042455643181598,
      -0.3639503247236419,
      0.12927383944881468,
      0.3191247895054069,
      0.35186745351105786
    ],
    [
      -0.30373054746152356,
      0.6836097874486715,
      0.34426000397678924,
      -0.08431264551658432,
      -0.9282194025572069,
      -0.7392270923586497,
      -0.6946292122553586,
      0.417158167103293,
      0.35467410430028257,
      0.34559795493714224,
      -0.17555620370693076,
      -0.27939514143603916,
      0.3205621803331982,
      0.5237561780695317,
      0.33587833368542647,
      0.22487872621029234,
      0.3588093488025368,
      1.394418523434261,
      1.5949989258970894,
      -0.16915600107785578,
      0.21485200377027114,
      -0.6653081863823033,
      -0.6945398102950431,
      0.037852293451635655,
      -0.048739546446081854,
      0.06677775363442522,
      0.018028879696326636,
      -0.9716902712420347,
      -0.437308435148721,
      -0.031298561727342904,
      -0.16785532157779073,
      -0.08548243768052792,
      -0.5074666280883777,
      0.10548657913518367,
      0.5834336398646761,
      0.208198733490621,
      0.0026261419613074037,
      0.6322556513199064,
      0.45673005787431775,
      0.31892916409569105,
      -1.1048973280275873,
      0.41652224562408807,
      0.06580310895317043,
      -0.2798621874021041,
      -0.37764005330135225,
      -0.2206787451313137,
      -0.17703920451681565,
      -0.11281577842363255,
      0.15540946431419492,
      -0.8154830558018805,
      -0.011397980631683688,
      -0.35625410212690156,
      0.2782013074331291,
      -0.1406263909787647,
      0.1514113147870632,
      0.17157814672575059,
      -0.0002778516940662941,
      0.22248448127322554,
      -0.049218146796611024,
      -0.18622142948356546,
      -0.08429996851308974,
      -0.28260176509537077,
      -0.21576130142372887,
      -0.10946025399427727,
      0.22782001535702287,
      -0.09947411436421068,
      0.13146321110277182,
      -0.18989634085304236,
      0.48320418551642325,
      -0.19692403540590592,
      0.16103725762979487,
      -0.07398072078478342,
      0.12501234375175563,
      -0.14470901334884437,
      0.44752060646803565,
      0.20274607489348487,
      0.3320961982213835,
      -0.2819456056254759,
      -0.03659738026751776,
      0.21322585648361886,
      0.0919038557031432,
      -0.07958161489761284,
      -0.24922786978117534,
      0.07784350798339262,
      -0.061570782303016124,
      -0.07523364737680573,
      0.2865194395607499,
      -0.06229340522846903,
      -0.23600323865870454,
      0.12303930469436668,
      -0.10712643440959727,
      0.20884757303815207,
      0.27223024849203936,
      0.09701826362393928,
      -0.09176987645224538,
      -0.1152876324842971,
      0.2267899461461561,
      -0.13435061460083372,
      0.05907254931408186,
      -0.216757046492968,
      -0.16905549539435766,
      0.3506979458169444,
      -0.03804797719076189,
      0.006726319075480786,
      -0.6077594028423017,
      -0.19190374769548482,
      -0.10582247660720365,
      0.15768534513236357,
      -0.13824707741124526,
      -0.6495045184998919,
      -0.14232214555354336,
      0.10822128432126053,
      -0.3367035365886522,
      0.07359772569476765,
      -0.1044277679141699,
      0.04012480860430348,
      0.1298104615035061,
      0.03600562248074962,
      -0.0644534786867906,
      -0.06165447927403965,
      0.0042090164054492275,
      -0.03927736911239763,
      0.05668343293103412,
      -0.08843544918289284,
      0.007797653434696266,
      0.1212546544983039,
      -0.11693101980946438,
      -0.055986152771179284,
      0.03666121734035393,
      -0.09454645220506565,
      0.07797044737789885,
      0.10158055902179,
      0.06729673715242095,
      -0.022560029084825416,
      -0.08677327586866321,
      -0.0779966296560626,
      0.04338765689347219,
      -0.0015215573031415464,
      -0.17170427869235014,
      0.01567904673426475,
      -0.041046018453401056,
      0.23857585164551548,
      0.14343562929199796,
      -0.09617297744168665,
      -0.0783051537458133,
      -0.04876681523459971,
      -0.04818529746115407,
      0.33104715993431466,
      -0.08234280511305753,
      0.17452492796304203,
      0.03382934808848939,
      -0.1438113298768902,
      0.1805419785466771,
      0.22064390735243136,
      -0.02440060430311218,
      -0.04523703441155456,
      -0.10126547354200509,
      0.004226675825014056,
      -0.03716901859172585,
      0.22321916190568444,
      -0.0301268361468638,
      -0.23650106188658518,
      0.047906130660898445,
      0.25401179323874673,
      -0.04749061493123553,
      -0.003205982629100952,
      0.018577826251667397,
      0.16011866592413374,
      -0.09373746385518361,
      -0.06588076219508922,
      0.1004998800587626,
      -0.006445156176340405,
      -0.12832837730843313,
      0.037681559375553654,
      0.009086806783612872,
      -0.15842861958960175,
      -0.14744383773419317,
      0.050710227745739404,
      -0.0018201719339151613,
      -0.2841533989258118,
      -0.0006991974668936079,
      7.77503151344572e-133,
      1.0091802602399725e-131,
      -0.2062627647210694,
      -0.24749732581345418,
      0.3207354322971803,
      0.31107276909772424,
      0.6167733146578342,
      0.0011290906394202836,
      0.1714657096206548,
      -0.095509956431468,
      -0.46591077757257987,
      0.020026112380268895,
      -0.16794136887767314,
      -0.011339798312215479,
      0.06460183232879647,
      0.0005948388788245236,
      -2.4161522477266002e-132,
      4.155007595465578e-132,
      0.31705386264716434,
      0.12066751783816713,
      -0.10387412784240642,
      -0.21052988133209577,
      0.6722440624672883,
      -2.752948757443715e-05,
      -0.14299115550545174,
      -0.060181138783779224,
      -0.20162913893404633,
      -0.021167687732795707,
      -0.6404875516449666,
      0.909373035520462,
      0.25094937287442365,
      0.6384214654814834,
      -0.22444256734068896,
      -0.1632008166687913,
      0.1401367231995394,
      -0.008936788366813381,
      0.09485594178810575,
      -0.040237460036318846,
      0.016528066212657015,
      -0.4281993492303046,
      -0.338858125323449
    ],
    [
      0.39062240868316733,
      -0.4224428093234326,
      -0.09040273423524034,
      -0.03301917088914578,
      0.34897475830378766,
      -0.0979860939475563,
      0.062150259652179796,
      0.7433224953780062,
      -0.37825930605265295,
      -0.4757504815280539,
      -0.16577058450973123,
      -0.12656871562681013,
      0.31194572348592897,
      -0.6345882121672407,
      -0.1798890838715555,
      -0.27523888794879736,
      -0.4489895805459501,
      -0.7580663749550697,
      -0.6675322541008524,
      -0.040245564176292485,
      -0.07971538433455293,
      0.0566025988261098,
      0.027320919006708196,
      -0.02971469498477811,
      -0.12140942415585092,
      -0.25114950689284615,
      -0.19643740716772956,
      -0.4896972825514057,
      -0.16513139058660253,
      0.7206913710379127,
      0.13708296099190662,
      0.31195797021074423,
      0.23720373356219426,
      -0.3352457441575735,
      -0.15021333718391042,
      -0.8423086644080727,
      -0.2825040480850145,
      -0.3335648907880989,
      -0.39929648060228967,
      -0.29621681855154025,
      -0.15074017602165202,
      -0.07466103038213766,
      -0.36906151755600675,
      -0.31744692555076753,
      1.1822014022614902,
      0.6442101304299265,
      0.15263230888257948,
      0.1707204229913507,
      0.04370252256590429,
      -0.4267875188828551,
      0.012519669964999477,
      0.32572721430602186,
      0.2782680077104659,
      -0.10287465942571597,
      -0.2566374216118439,
      0.2122698093942868,
      0.21452362620171073,
      0.06432305616964376,
      0.023769378696739174,
      0.034595457454473295,
      0.04016174560515898,
      0.3063319919886992,
      -0.12948536726891707,
      -0.015463800854313333,
      -0.1705321056170917,
      0.020002491077128766,
      0.16324961457086523,
      0.22998985877110126,
      -0.01768387663378054,
      0.16267463169694543,
      -0.1708521823822246,
      0.34042508698528945,
      -0.029308267065176336,
      0.17336415979111067,
      -0.23621902560459584,
      -0.07149426661813829,
      -0.1986560220881327,
      0.22752746001143195,
      -0.03485416790198692,
      -0.06895936784689083,
      -0.2029677687356595,
      0.19568754402161945,
      -0.262257647399351,
      -0.1208871299299136,
      0.019626767665182485,
      -0.14585255873525574,
      0.2205198174510094,
      -0.04082879218412311,
      -0.04059416431826047,
      -0.2476439424417637,
      -0.07258125158122658,
      -0.23598290989880563,
      0.33941846491308364,
      0.056082460896924605,
      -0.16393646282166044,
      0.42606864088486807,
      -0.3442202694107489,
      -0.01557171082859361,
      -0.29366208743195166,
      0.12915440011315052,
      0.3924434709040576,
      -0.29068562179624585,
      -0.06819807459892414,
      0.029744119835640792,
      0.07065185332792631,
      -0.39408902315794214,
      0.42680462613822734,
      0.38378047547923194,
      -0.057795955076512175,
      0.04660674661836686,
      -0.05103044878561661,
      -0.21464086807126917,
      0.23620245193118936,
      0.1858943996145777,
      0.10513550465935069,
      -0.05923482490750004,
      -0.13781069270489307,
      -0.07864680671449943,
      0.020330727980237627,
      0.11811661603054985,
      -0.028935053339704857,
      0.014332467937657509,
      0.03827399609404905,
      -0.12034877687105536,
      0.038407997127476154,
      -0.09269498966251395,
      0.0930419845848152,
      0.00035552485087925775,
      0.062341044077306944,
      0.04999420729510178,
      0.012392501193011258,
      -0.13637452246524642,
      -0.08184358389154475,
      -0.09500322228116298,
      0.19133676539740652,
      0.1226266006550103,
      0.14110601281425644,
      0.2094859090191162,
      0.06557470960415532,
      0.07486707363582176,
      0.033268954867575966,
      -0.20715059849151865,
      0.07771758026922898,
      -0.16814774259349444,
      0.07225646428789118,
      0.11828176298692901,
      -0.14698014333839882,
      -0.006632214161344103,
      0.06057292631075144,
      0.1146347409378339,
      -0.1449519875541621,
      0.03353340435789876,
      -0.14576225109556737,
      0.023867022360769284,
      -0.1438069578646955,
      -0.2722727270233939,
      0.1447029770406478,
      0.031935922120929834,
      0.016211078831592864,
      0.22254005579815087,
      0.23743673816845423,
      0.13054243339816268,
      -0.2884358964875265,
      0.2806772889235811,
      -0.2563548684458887,
      -0.2190988679613732,
      0.13946779315949148,
      0.15692414369663385,
      -0.1411812158964857,
      0.1345861935524244,
      0.14591910688679363,
      -0.07416577778102088,
      -0.15589865505987385,
      -0.13234850486766178,
      0.09926102783437633,
      0.061652175530772124,
      -0.10249787749471125,
      0.1600476615004169,
      0.01854089573933048,
      0.25805811962584474,
      0.0019816607381463423,
      5.096387628703859e-133,
      -3.7113032157349857e-131,
      -0.7204277150084446,
      0.31548829187072897,
      -0.14316526456350115,
      -0.21905562892619995,
      -0.8007833211445979,
      -0.0002694854866856563,
      -0.16235363418772059,
      -0.12554624635163442,
      0.5446792201004451,
      -0.011343365157587564,
      0.38452806457287025,
      -0.010033180260919537,
      0.10528258962813576,
      -0.0010703883381478368,
      -1.9115836261429894e-131,
      1.9923142960166046e-132,
      0.359765531037078,
      -0.09541712383481776,
      -0.027809124733113217,
      0.1284600867059815,
      0.3926583588385702,
      8.164346180032372e-05,
      0.10266161817183737,
      0.11362693016856763,
      -0.2286128591796711,
      0.005736245150596092,
      0.1012759986427767,
      -0.2107002392154229,
      -0.21590537787187133,
      -0.40634053431063805,
      0.2387275149463861,
      0.21857604164410485,
      -0.15280828418307224,
      0.6958119296469143,
      -0.3554738244714394,
      -0.3638453911347976,
      0.27746356734735333,
      -0.33505342540017646,
      5.86507285587037e-06
    ],
    [
      -0.06978664771131854,
      -0.05476744268761961,
      0.24497767709069648,
      0.1069365997300959,
      -0.43355285892817386,
      -0.22697955064174766,
      -0.07200433411468138,
      0.02107621437635603,
      -0.029148524717818522,
      0.04169443750719769,
      -0.2081214262738148,
      -0.1508559804975644,
      -0.08398640379109627,
      -0.10788770042261418,
      0.5480069320063344,
      0.342804484023411,
      0.6456912485675167,
      1.4111701590243553,
      1.934257630639303,
      -0.0538443637913001,
      0.41110104573440553,
      -0.3505502008617823,
      -0.36696246812327993,
      0.04610699993377676,
      0.0335851567854193,
      0.17655146696162283,
      0.08162813193323484,
      -0.15521505836472055,
      -0.4253647407341316,
      -0.042632856410522516,
      -0.09103442645320085,
      -0.08407376994417047,
      -0.045199925881161104,
      0.1911020819380067,
      0.17627049196683986,
      0.16639149367516257,
      0.8068222684595413,
      0.2587575431072977,
      0.052603527860513054,
      0.02587742435970183,
      -0.17923599470234952,
      -0.18205537004802358,
      -0.15996390461672672,
      0.30531892401895233,
      -0.9689655664434085,
      -0.09193934580822193,
      0.15989425033390958,
      -0.1347481675554077,
      -0.3500339204218298,
      0.11814262824411136,
      -0.035954565418994326,
      -0.4136765765381116,
      0.08426944110259144,
      -0.20212281848029767,
      0.10796166053843016,
      -0.06576158305379147,
      -0.1025525237493613,
      0.09125624984764184,
      -0.027704693513521908,
      -0.18001931006579644,
      -0.05915879280298642,
      -0.3010854493088228,
      -0.1498524689183962,
      -0.04255541286308325,
      0.22793839929812337,
      -0.13369112473374903,
      -0.018337512315340077,
      -0.11354511246947666,
      0.27849439874420023,
      -0.2055616376303238,
      0.05754794880125479,
      -0.10288553500962438,
      -8.413687469440601e-05,
      -0.21246077574187358,
      0.21520883790924342,
      0.06292194320948204,
      0.09896440063931995,
      -0.18770865910212933,
      0.031026961540886758,
      0.08871973070346804,
      0.002445723798516532,
      -0.06419435771034242,
      0.23954460547258918,
      0.016510502321383482,
      -0.46225285725014525,
      -0.05540046182887986,
      0.3352691058442554,
      -0.032870829180527854,
      -0.09629776540481513,
      0.1422332182737671,
      0.32001329395651285,
      -0.20130379058345593,
      -0.282983676448978,
      -0.4152905419604491,
      -0.008145802781827326,
      -0.05045153006051404,
      -0.009433988371016302,
      -0.03649242851727747,
      0.11342029093529564,
      -0.3526369544134028,
      -0.22577864460077346,
      0.2963501080683319,
      0.2260607146951359,
      -0.5069491295374404,
      0.02947614586021607,
      0.03566259751996206,
      -0.32097534764921415,
      -0.056404897315680894,
      -0.060288690270067044,
      0.08312497266773893,
      0.0429675118789321,
      0.842093523600719,
      0.08029166271894095,
      0.20510617488568172,
      -0.012685314030745803,
      0.013692790769227954,
      0.06452871879965591,
      -0.006255858068697157,
      -0.09056380989046707,
      -0.08359246522595133,
      0.037193606967963394,
      0.015253183762483441,
      -0.13435100269911737,
      -0.05888708005624899,
      -0.04054504229070887,
      0.11985046159777323,
      -0.01842128978732206,
      0.0787320726192198,
      -0.017267322423281935,
      -0.05888602610062137,
      0.09497665485671532,
      0.04026114641664773,
      -0.019464913354929128,
      -0.004696620799750759,
      -0.11970463136047137,
      -0.05248296219793697,
      -0.03571139769805583,
      -0.010488978070702502,
      -0.01037314131335843,
      -0.04815149318245343,
      0.0056320561112116075,
      0.08204785984439775,
      0.012041875018995405,
      -0.060407596128471346,
      -0.008377738198750182,
      -0.029911902241052685,
      -0.005296036139915352,
      -0.06117156454167988,
      0.06089410720101893,
      -0.17621545888039558,
      0.32753987681598373,
      0.1756717446377118,
      0.0689860093286775,
      0.21668862703935177,
      0.18774252832957838,
      -0.2276151878661196,
      -0.0196920190612761,
      0.005075230892534865,
      -0.055091362455166375,
      0.30020425273651474,
      0.1489464845793947,
      0.2115462233969739,
      0.17868745392105573,
      -0.05613781918892817,
      0.06571687652545745,
      0.004103835811592097,
      0.12829355873219297,
      -0.045356396746239015,
      0.26249595193202446,
      -0.12004425869983612,
      0.10114095323718844,
      -0.06750438720589497,
      -0.034377212800180516,
      -0.06112248008141554,
      -0.01316894003921374,
      0.2053306679663924,
      -0.10346342308336819,
      -0.2734664505896105,
      -0.004984335390933684,
      -0.3125941662465084,
      -0.0002857262445920792,
      -3.630615535691808e-131,
      7.204581075988213e-132,
      -0.17825955810095542,
      -0.06011275723322402,
      0.2062321594589997,
      0.21056652510487722,
      0.4348748696099561,
      0.00036149161806350616,
      0.08321356624187937,
      0.05376400532562278,
      -0.059489766846807075,
      0.011960348330435097,
      -0.299152481724211,
      0.0017411873831314304,
      0.32138490993516106,
      -9.051776001330141e-05,
      -2.5441729885139377e-131,
      2.5285422501072517e-131,
      -0.13957743003724568,
      0.13843378434456988,
      -0.07652481720585592,
      -0.2146773225570398,
      -0.11184029837063696,
      -5.178572523436076e-05,
      -0.09796527853252461,
      -0.038369853208148015,
      -0.1852441071357922,
      -0.01284238859881197,
      0.03179201944874533,
      0.03970339045412832,
      0.40961283020628175,
      0.384732641616164,
      -0.08883360872535631,
      -0.09847913110676274,
      0.17756778423354358,
      -0.30230109801042504,
      0.3296202294446818,
      0.08748278989676415,
      -0.0540767825000192,
      0.216628009247898,
      -0.1974636237059839
    ],
    [
      -0.16143735326973646,
      -0.08005233793858177,
      0.26282482026185894,
      0.3306484438253931,
      -0.5685301255938877,
      -0.4404319630412591,
      -0.13240063289304613,
      -0.0005773571531919042,
      0.11369612663025766,
      0.09617810965191882,
      -0.31735681102113755,
      -0.3179008957038313,
      -0.27089431874749614,
      -0.19167038394229235,
      0.22067739670811864,
      0.31402065997702344,
      0.16021167243355744,
      0.9117799787545375,
      0.8694035371967775,
      0.001387961088752785,
      0.46058171008426146,
      -0.03437593134020114,
      -0.17571592281643966,
      0.2507534643990738,
      0.1800267759883018,
      0.10244072994442868,
      0.03146156583810957,
      -0.3725420188815344,
      0.08677725432073066,
      -0.17021993328193302,
      -0.2859094327010845,
      -0.05649910433852616,
      -0.01524331190894994,
      0.08765978648888477,
      -0.07442907050462672,
      0.16133126913784768,
      0.5226481525400435,
      0.28674372745993704,
      0.07626572292801113,
      0.0429880641421343,
      0.40844293093071776,
      -0.011661016127044179,
      0.0202186867980483,
      0.4680638098925294,
      -1.1423568595498663,
      -0.022344290994286222,
      0.24738898440219606,
      -0.18074841082318796,
      -0.2970024367072682,
      0.0885393741501686,
      -0.11855849397023632,
      -0.48393071587079306,
      0.1033836829145336,
      -0.07497841771728789,
      0.08438411696862912,
      0.07319318307158293,
      0.013135356321016712,
      0.08572579558738698,
      -0.12783972294792165,
      -0.17650225624782742,
      -0.11145841794806777,
      -0.14278636820828083,
      -0.10374772768724377,
      -0.01626375239160697,
      0.2961533526247802,
      0.010535232630551998,
      0.06383489308448634,
      -0.22237079998214176,
      0.18027380990599798,
      -0.1510118518503388,
      0.0896175025631904,
      -0.06391079004005036,
      0.11833028554395487,
      -0.11693615246777905,
      0.1649999470276814,
      0.07375792470697955,
      0.10675868648538799,
      -0.14637330425363135,
      0.03206814389834417,
      0.19914718161268463,
      0.16687431184829837,
      -0.11689045602816052,
      -0.13500199271806795,
      0.11143836435984751,
      -0.44218091480751115,
      0.00027545274076281267,
      0.28855856532171703,
      -0.20596063998927017,
      -0.2859546102445274,
      -0.10487594712369543,
      0.14820722641229647,
      0.23219530919544976,
      -0.10233194844977084,
      -0.09019839047959702,
      0.053881432222129884,
      -0.27148344680221337,
      0.3241030587502863,
      0.04734230971494293,
      0.21569984057313132,
      -0.20606424562492018,
      -0.24121589014934666,
      0.22619814606354194,
      0.22530043838503744,
      -0.11081109685761945,
      -0.12867937809890137,
      -0.025891062638095767,
      -0.4851867722390022,
      0.03842721291640655,
      -0.14607415275164085,
      -0.23865513397460378,
      0.10394165196521359,
      0.526894078583819,
      -0.19808381605016065,
      0.07943434109081624,
      -0.09644929873307734,
      -0.019630515102750788,
      0.17462316195295094,
      0.013367684857983042,
      -0.06873444956055044,
      -0.07371633980822594,
      0.05641477288775238,
      -0.07403582913347155,
      0.06959359999182947,
      -0.022533476926254858,
      -0.1286724597966247,
      0.1278092596564063,
      -0.08222998274157922,
      0.15865767906811082,
      -0.023352138532908004,
      -0.11096025771482022,
      0.039118453919040744,
      0.11790251474420972,
      0.06459904579904735,
      0.03317723134236428,
      -0.2241560240869364,
      -0.14602158476116137,
      -5.703215793243337e-05,
      -0.0858997528739109,
      -0.05452386151308975,
      -0.040199302528547406,
      -0.060694703766163066,
      0.23441779381084257,
      -0.0783399410502317,
      0.06917618123184523,
      -0.11440003941176317,
      -0.17505290833936352,
      0.03444546790905309,
      -0.06986016511681274,
      0.1429721752805111,
      0.15597280926229198,
      0.1250418441190188,
      0.05914939114378981,
      0.0005294600079175252,
      0.09608987443739837,
      0.07054530828392681,
      0.13841434711561562,
      0.05744368435549811,
      0.05096082569069446,
      0.17212850608227404,
      0.028201499340401746,
      -0.10771462530693723,
      0.06088300032837501,
      0.29292430311334683,
      0.07214159335487301,
      -0.31929998031079077,
      0.21523997502167821,
      -0.01656963309857179,
      0.10654793272170167,
      -0.1343534555842951,
      -0.19164309619735864,
      0.026219304000302465,
      0.02601051530910639,
      -0.06455153153664081,
      -0.08976833459926654,
      0.10039394487729701,
      -0.018573542894780012,
      0.024001003000826745,
      -0.42945237084592786,
      -0.011789391621199897,
      -0.4751726361167665,
      -0.0015707348080598851,
      1.0031991330714564e-131,
      1.6029807108090463e-131,
      0.03676345422656465,
      -0.2087496443198256,
      0.18733027207582104,
      0.26106256684359835,
      0.5528837158655803,
      0.0014807493662353567,
      0.07315431926065219,
      0.1324144409583801,
      -0.15539181109143377,
      0.015304524819256973,
      -0.3092703292123966,
      0.00772376203044502,
      0.0005509885038463463,
      0.0009222431222596638,
      -3.4330542294889075e-131,
      -2.916898074120117e-132,
      -0.17575506668103227,
      0.2748449897122158,
      -0.027600670378851017,
      -0.24918017872982182,
      0.20691916849374434,
      -0.00035354424681194123,
      -0.12778999108598657,
      -0.07393397486672572,
      -0.3982598007152114,
      -0.013735799575541358,
      0.018239839159925875,
      0.13079691781313438,
      0.3333962792779155,
      0.25718395227446755,
      -0.05446416487522982,
      -0.29704503686267003,
      0.2776153653371611,
      -0.3475068791660942,
      0.12505070670002186,
      -0.06757695225320778,
      0.059304115103437714,
      0.05057167840267182,
      -0.1045514674392641
    ]
  ],
  "modelVersion" : "2026.07-v3.1-ranker-9",
  "outputWeights" : [
    -1.5694583978795889,
    1.5945026595926224,
    -1.8781863130691114,
    -1.260556799986133,
    2.2659855168178438,
    -2.2050308108147467,
    1.2468594880477848,
    1.606808519532919
  ],
  "temperature" : 1.03,
  "thresholds" : {
    "bothKnown" : 0.6734998232461681,
    "oov" : 0.05444376415412269,
    "protected" : 1,
    "punctuation" : 0.28206310774527626,
    "punctuationBothKnown" : 0.9999558958170915,
    "punctuationOOV" : 0.07090920948115056,
    "punctuationShort" : 0.6477880021284813,
    "short" : 0.9970132415192905,
    "standard" : 0.9303437192652307
  },
  "trainExamples" : 145549,
  "trainingManifestSHA256" : "0ce51e94651d4f80a3987c0d470e2d9470b3cd0b9575cfb0533b9669739cc582",
  "validationExamples" : 72184,
  "weights" : [
    1.131615606556395e-12,
    0.19592426454237902,
    -0.24305715096297084,
    0.4284945895850506,
    -0.3733743007437191,
    -0.35484880707141647,
    0.007943090731876967,
    5.814737327545488e-13,
    1.7897919836119143e-13,
    0.12416423107134113,
    2.113598163947109e-13,
    2.1569612430561758e-13,
    5.061087339224871e-13,
    2.9481252517034935e-13,
    0.3039350488060059,
    0.32481810286458007,
    0.40388974398651184,
    0.4909605029989201,
    0.4980539122593956,
    2.432766722879178e-13,
    0.27710875237717664,
    0.12016953185131193,
    0.12016905176240805,
    0.28601919067898446,
    0.2856150615140556,
    0.1595670184500399,
    0.08959994585859392,
    -0.002189734982727549,
    0.09356592782906441,
    -0.49550125008318047,
    -0.3855478737308697,
    0.055070663052983373,
    -0.19065815857932916,
    0.3535488566468543,
    0.4107492424456699,
    0.005510528980809048,
    0.11577827955973137,
    0.5599986755708714,
    0.28654905221954813,
    0.3108046488866813,
    0.29829755040827777,
    0.32404065370296414,
    0.24845285952230625,
    0.4994563978690367,
    -0.8668493596464635,
    -0.16989515279194567,
    -0.22455382372146185,
    0.22455402354584197,
    1.76214037741758e-13,
    0.15863797179360734,
    -0.0700189229069259,
    -0.40443282802935654,
    -0.0482593087691842,
    -0.07057160924861353,
    0.03919883393417659,
    -0.04506033906322502,
    -0.13182053076024516,
    -0.023236432545526375,
    -0.06264768714956424,
    -0.200328824146262,
    -0.09870764055589028,
    -0.18274201660329295,
    -0.043858902352699604,
    -0.07498669366071532,
    0.2547065700273363,
    -0.11041359939756619,
    -0.09041211927537217,
    -0.181883957392772,
    0.14017605970773372,
    -0.2112684421037513,
    -0.00028864389578073225,
    -0.08661124228378658,
    0.11120418792382429,
    -0.10167815281530841,
    0.22697751949623096,
    -0.04127660514180025,
    0.08401625211146795,
    -0.1368829703044628,
    0.060250160425677865,
    0.13901833387442655,
    0.09970374531484796,
    -0.10064428169095134,
    0.07775890932948072,
    0.08844848882061426,
    0.10913894226645904,
    -0.03661877924763212,
    -0.001469857190217617,
    -0.2075073486503564,
    -0.1217130704180094,
    0.05641168236345453,
    0.12950785645892618,
    -0.009254461867222123,
    0.353752087536084,
    -0.14190450634433982,
    0.15083199412639287,
    -0.40407352674846875,
    0.23524317005610748,
    -0.13762496761039222,
    0.17952299514635295,
    -0.05030797920497908,
    -0.3335826828230933,
    0.2885836497262956,
    -0.0417283304120924,
    -0.16518460796285736,
    0.12851799188531768,
    -0.10785301314168665,
    -0.22755820808539956,
    -0.20913052633525991,
    -0.11324728217631652,
    -0.10621834581516963,
    0.28148305439018956,
    0.07375662075279238,
    -0.17718000282370805,
    -0.03904360947389539,
    -0.021441956659567534,
    -0.0055838138496170425,
    0.04497313816837909,
    0.000804702371127758,
    -0.04349602363482944,
    -0.07243560886876749,
    0.05575826472455107,
    -0.06990268016844194,
    0.01576573436325982,
    -0.035528289406005324,
    -0.11160393164767218,
    0.11650192816923424,
    -0.004171859008246075,
    0.05260529497106973,
    -0.06395994201518751,
    -0.07138983004634289,
    0.047967670905274463,
    0.09672960242403977,
    0.0017909281276170502,
    0.020541515980574937,
    -0.1362570441994963,
    -0.14722015134436636,
    0.025694425140739916,
    -0.05490141584147331,
    -0.06826030735460081,
    -0.05520132829623673,
    -0.04993706856288615,
    0.2033758444214607,
    -0.029802896863464157,
    0.03505285275517196,
    -0.11260481436339309,
    -0.13074126029031768,
    0.07110933668842842,
    0.0040239927543006815,
    -0.10071823094059834,
    0.09847354878604328,
    0.1280768672046678,
    0.1796766404675603,
    -0.28138980632589866,
    0.18111063856159687,
    -0.016164614635072135,
    0.15575514724491027,
    0.06564791973153207,
    0.033822144058831084,
    0.03683895088667886,
    -0.20696988018614734,
    -0.2885362106007177,
    -0.1806800401337566,
    0.16484134794900807,
    0.03465577674937189,
    0.020218499520881037,
    0.003110998653699984,
    -0.07580110492509025,
    -0.026667657015975003,
    0.010472770993878678,
    -0.044406800107037514,
    -0.04330129592194428,
    -0.06388771851827109,
    -0.03426625454698816,
    -0.09358793052293567,
    0.0664705411351787,
    0.007055628305946619,
    0.05045645766430403,
    -0.020268903255249316,
    -0.03848756702921563,
    -0.08912762359907378,
    -0.004117354451277491,
    0,
    0,
    0.3005675393545832,
    -0.33805510500977687,
    -0.03193848541041842,
    0.21550237393071459,
    -0.12138784340442285,
    0.002423890640298208,
    0.0741564762279992,
    0.15457853629318052,
    -0.3734295557460759,
    0.014501667838326618,
    0.21463913859604963,
    0.03848756702921596,
    0.0891278706751812,
    0.004117354451277959,
    0,
    0,
    -0.30056645806817084,
    0.33805547421148535,
    0.03193848541041858,
    -0.21550237393071464,
    0.12138785073278856,
    -0.0024238889387479434,
    -0.07415647622799801,
    -0.154578536293179,
    0.373429349727734,
    -0.014501667838326716,
    -0.21463908486789696,
    0.02605484483059584,
    0.29287754762721874,
    0.29485413569985586,
    1.1316156065567243e-12,
    4.553633858414393e-12,
    -5.5933869276109356e-14,
    -0.4612021437521749,
    4.3050601487135205e-14,
    -8.576713399413307e-14,
    4.976098973132331e-14,
    -1.346442982726551e-16,
    5.933021385784144e-13
  ]
}
