{
  "featureNames" : [
    "bias",
    "isLiteral",
    "isDirect",
    "isTrailingPunctuation",
    "isLayoutLetterTail",
    "isWrappingPunctuation",
    "candidateLanguageRU",
    "currentLanguageRU",
    "sourceLength",
    "candidateLength",
    "sourceWordKnown",
    "sourceWordScore",
    "sourceExtended",
    "sourceCharacterScore",
    "candidateWordKnown",
    "candidateWordScore",
    "candidateExtended",
    "candidateCharacterScore",
    "characterAdvantage",
    "sourceFrequentLexicon",
    "candidateFrequentLexicon",
    "candidateBelief",
    "beliefAdvantage",
    "phraseKnown",
    "phraseScore",
    "compoundKnown",
    "compoundScore",
    "bothKnown",
    "isShort",
    "isSingle",
    "prefixLength",
    "suffixLength",
    "preservesTypedSuffix",
    "usesTargetPunctuation",
    "isFullOpposite",
    "preservesFullSourcePrefix",
    "preservesFullSourceSuffix",
    "usesFullTargetPrefix",
    "usesFullTargetSuffix",
    "fullOppositeKnown",
    "preservedSuffixKnown",
    "targetPunctuationKnown",
    "suffixTerminal",
    "suffixSeparator",
    "suffixWrapper",
    "suffixOtherDecoration",
    "channelLiteralFraction",
    "channelOppositeFraction",
    "channelSharedFraction",
    "channelTransitions",
    "candidateENCharHash0",
    "candidateENCharHash1",
    "candidateENCharHash2",
    "candidateENCharHash3",
    "candidateENCharHash4",
    "candidateENCharHash5",
    "candidateENCharHash6",
    "candidateENCharHash7",
    "candidateENCharHash8",
    "candidateENCharHash9",
    "candidateENCharHash10",
    "candidateENCharHash11",
    "candidateENCharHash12",
    "candidateENCharHash13",
    "candidateENCharHash14",
    "candidateENCharHash15",
    "candidateENCharHash16",
    "candidateENCharHash17",
    "candidateENCharHash18",
    "candidateENCharHash19",
    "candidateENCharHash20",
    "candidateENCharHash21",
    "candidateENCharHash22",
    "candidateENCharHash23",
    "candidateENCharHash24",
    "candidateENCharHash25",
    "candidateENCharHash26",
    "candidateENCharHash27",
    "candidateENCharHash28",
    "candidateENCharHash29",
    "candidateENCharHash30",
    "candidateENCharHash31",
    "candidateRUCharHash0",
    "candidateRUCharHash1",
    "candidateRUCharHash2",
    "candidateRUCharHash3",
    "candidateRUCharHash4",
    "candidateRUCharHash5",
    "candidateRUCharHash6",
    "candidateRUCharHash7",
    "candidateRUCharHash8",
    "candidateRUCharHash9",
    "candidateRUCharHash10",
    "candidateRUCharHash11",
    "candidateRUCharHash12",
    "candidateRUCharHash13",
    "candidateRUCharHash14",
    "candidateRUCharHash15",
    "candidateRUCharHash16",
    "candidateRUCharHash17",
    "candidateRUCharHash18",
    "candidateRUCharHash19",
    "candidateRUCharHash20",
    "candidateRUCharHash21",
    "candidateRUCharHash22",
    "candidateRUCharHash23",
    "candidateRUCharHash24",
    "candidateRUCharHash25",
    "candidateRUCharHash26",
    "candidateRUCharHash27",
    "candidateRUCharHash28",
    "candidateRUCharHash29",
    "candidateRUCharHash30",
    "candidateRUCharHash31",
    "candidateENContextHash0",
    "candidateENContextHash1",
    "candidateENContextHash2",
    "candidateENContextHash3",
    "candidateENContextHash4",
    "candidateENContextHash5",
    "candidateENContextHash6",
    "candidateENContextHash7",
    "candidateENContextHash8",
    "candidateENContextHash9",
    "candidateENContextHash10",
    "candidateENContextHash11",
    "candidateENContextHash12",
    "candidateENContextHash13",
    "candidateENContextHash14",
    "candidateENContextHash15",
    "candidateENContextHash16",
    "candidateENContextHash17",
    "candidateENContextHash18",
    "candidateENContextHash19",
    "candidateENContextHash20",
    "candidateENContextHash21",
    "candidateENContextHash22",
    "candidateENContextHash23",
    "candidateENContextHash24",
    "candidateENContextHash25",
    "candidateENContextHash26",
    "candidateENContextHash27",
    "candidateENContextHash28",
    "candidateENContextHash29",
    "candidateENContextHash30",
    "candidateENContextHash31",
    "candidateRUContextHash0",
    "candidateRUContextHash1",
    "candidateRUContextHash2",
    "candidateRUContextHash3",
    "candidateRUContextHash4",
    "candidateRUContextHash5",
    "candidateRUContextHash6",
    "candidateRUContextHash7",
    "candidateRUContextHash8",
    "candidateRUContextHash9",
    "candidateRUContextHash10",
    "candidateRUContextHash11",
    "candidateRUContextHash12",
    "candidateRUContextHash13",
    "candidateRUContextHash14",
    "candidateRUContextHash15",
    "candidateRUContextHash16",
    "candidateRUContextHash17",
    "candidateRUContextHash18",
    "candidateRUContextHash19",
    "candidateRUContextHash20",
    "candidateRUContextHash21",
    "candidateRUContextHash22",
    "candidateRUContextHash23",
    "candidateRUContextHash24",
    "candidateRUContextHash25",
    "candidateRUContextHash26",
    "candidateRUContextHash27",
    "candidateRUContextHash28",
    "candidateRUContextHash29",
    "candidateRUContextHash30",
    "candidateRUContextHash31",
    "literalKeyPairHash0",
    "literalKeyPairHash1",
    "literalKeyPairHash2",
    "literalKeyPairHash3",
    "literalKeyPairHash4",
    "literalKeyPairHash5",
    "literalKeyPairHash6",
    "literalKeyPairHash7",
    "literalKeyPairHash8",
    "literalKeyPairHash9",
    "literalKeyPairHash10",
    "literalKeyPairHash11",
    "literalKeyPairHash12",
    "literalKeyPairHash13",
    "literalKeyPairHash14",
    "literalKeyPairHash15",
    "oppositeKeyPairHash0",
    "oppositeKeyPairHash1",
    "oppositeKeyPairHash2",
    "oppositeKeyPairHash3",
    "oppositeKeyPairHash4",
    "oppositeKeyPairHash5",
    "oppositeKeyPairHash6",
    "oppositeKeyPairHash7",
    "oppositeKeyPairHash8",
    "oppositeKeyPairHash9",
    "oppositeKeyPairHash10",
    "oppositeKeyPairHash11",
    "oppositeKeyPairHash12",
    "oppositeKeyPairHash13",
    "oppositeKeyPairHash14",
    "oppositeKeyPairHash15",
    "channelCost",
    "contextSameLanguageRatio",
    "lastContextSameLanguage",
    "sourceScriptMatches",
    "candidateScriptMatches",
    "sourceShapeProtected",
    "candidateShapeProtected",
    "capsLock",
    "englishSourceFrequent",
    "englishSourceDictionary",
    "englishSourcePlausible",
    "englishSourceUnlikely"
  ],
  "featureSchemaVersion" : 8,
  "formatVersion" : 2,
  "hiddenBias" : [
    0.05720657639290603,
    0.14719098544809203,
    0.14318698112860767,
    0.013892623604679065,
    -0.3062005118625507,
    0.18121808015640645,
    -0.28642054658878974,
    -0.17057985583982155
  ],
  "hiddenWeights" : [
    [
      0.03774786260564774,
      -0.27788814802324674,
      -0.4624207808604461,
      0.20695970466916283,
      -0.10787180958676183,
      0.3851552170704909,
      0.0789063731333482,
      0.19815802212075503,
      -0.16456231421615158,
      -0.566593612929032,
      -0.11844342876607279,
      -0.10049648289992826,
      0.19881458398799112,
      -0.6279315816732138,
      -0.08319237341754868,
      -0.3623964414393621,
      -0.7217140429916183,
      -1.0418335625745414,
      -1.0547382097653293,
      0.04056884972118504,
      -0.15348191664933203,
      0.5649738953823652,
      1.0510769358453724,
      0.11289780040584313,
      0.23453715513830894,
      -0.5220780844905241,
      -0.23569745711703746,
      -0.5540700963533884,
      0.09520108734554582,
      0.5298215080563301,
      0.513473490629619,
      0.6717840071052052,
      -0.04268160873787663,
      0.05372937494766864,
      -0.05372214751741638,
      0.017237761477256093,
      -0.5579592254159411,
      -0.8041662183763411,
      -0.38647947428819546,
      -0.32133021363005504,
      -0.23665686735800237,
      0.5113309576139875,
      -0.5911453499958458,
      -0.2110987110283705,
      1.7458952179819316,
      0.6297012377862867,
      0.011362830888429175,
      -0.113432621166088,
      0.423559835775794,
      -0.32901063505231865,
      -0.124280570601718,
      0.4168943093702012,
      -0.18038969747430464,
      0.07623664263322004,
      -0.18103348245138418,
      0.2903359678342408,
      -0.29383062409746474,
      0.11270820404672494,
      -0.409018180406755,
      0.015752438217759495,
      -0.4539510476185088,
      0.5353396839129771,
      0.023005466658193127,
      0.011390776473671258,
      -0.20494980950314037,
      -0.32667181932875466,
      -0.08348153547314402,
      0.012270810188591831,
      -0.19936291288837427,
      0.3594575465143036,
      -0.23320197921001887,
      -0.15465042050640992,
      0.0407112640708703,
      0.550163101841156,
      0.1923034082360209,
      -0.06113037835739087,
      0.08614755547288243,
      -0.09415931254745534,
      0.5527039261966702,
      -0.09499078286872684,
      -0.06760341558256479,
      0.004786225391023935,
      0.233682784968957,
      -0.28286291304211725,
      0.5357798683340573,
      0.155684721088814,
      0.19185892497107138,
      0.009849916418894412,
      -0.2777932588694755,
      -0.23370719316173394,
      0.1312564590127726,
      0.021629943617810503,
      -0.20040931309701498,
      0.2877520384209302,
      -0.07439178181985942,
      0.5129713768671943,
      -0.44769522713441184,
      0.2784725538365557,
      -0.41011915480078126,
      0.05831666102635374,
      -0.00402845055103703,
      0.39007102054097514,
      0.3896779881634614,
      -0.31479614100968073,
      0.48261895417958434,
      0.17016059108994513,
      0.04563769693213519,
      0.30366461595499455,
      0.5688945681831671,
      0.21683389076715637,
      -0.5928206152463281,
      0.09107200365098711,
      0.2082250524812366,
      0.25968899935770634,
      0.08684457884366473,
      0.38147753392706674,
      0.22386122429771446,
      0.1475823526618483,
      -0.06354098307395899,
      0.08480642029326001,
      -0.02572734916445074,
      0.12542926988951128,
      0.2642524095207739,
      -0.16687775563298127,
      -0.4598143526374187,
      -0.05749473499408913,
      0.4066150532319371,
      0.06846384490906797,
      0.050082429984647875,
      0.016605676009688052,
      -0.3098262684480071,
      -0.19010315790722487,
      0.062368255496591904,
      0.06107638897822271,
      -0.14328598648385205,
      -0.05788894233279249,
      0.07194879466352552,
      0.0717177927350105,
      0.07767928095603369,
      -0.036644781210286664,
      -0.14043162560601327,
      -0.003894893300758982,
      0.1344567494700964,
      0.08692289786263671,
      0.22760768414886867,
      0.0544615622627956,
      -0.009070009950852807,
      -0.2679189833308299,
      0.2808045958489037,
      -0.11977268898415667,
      -0.23920330851996846,
      -0.47405790620569344,
      -0.052775547405805735,
      0.0375090068028608,
      0.09984883953812723,
      -0.14424864337809173,
      0.25197200426915123,
      -0.0032328115564229805,
      0.1098996003768619,
      0.07977364027762736,
      -0.34127872916209523,
      -0.07727261541378354,
      -0.018367670709068844,
      0.39620873629737774,
      -0.1989623229529223,
      -0.3419630401544223,
      -0.08015243490190128,
      0.16321355240933744,
      -0.01829054259105644,
      -0.025782139534689746,
      -0.1701431712733345,
      -0.2958116430246424,
      0.12471561866410752,
      0.21346386837102874,
      0.051275302122269086,
      0.06340691494272212,
      0.09190006664272733,
      0.2789429022007993,
      0.2503080243990974,
      0.1887240972566669,
      0.004033330787870201,
      -1.7730722959436183e-162,
      5.095942464471152e-162,
      0.14121915970957755,
      0.4967993856341608,
      0.1359906379027135,
      -0.17877830230568112,
      0.06901079084225457,
      -0.7036421191737473,
      -0.19312833160278922,
      -0.09113031111984467,
      -0.14170115007605244,
      -0.008738889476862952,
      0.2815621691666688,
      -0.24393357910748786,
      0.3715584287006181,
      0.17285129089303133,
      -8.383424361837154e-162,
      -3.159542673433438e-160,
      -0.09201908825079191,
      -1.0968149765608628,
      -0.3054992369956433,
      0.17724331102861982,
      -0.47551920923174845,
      0.6169163902836613,
      0.20558536996728718,
      0.16311885359638334,
      -0.06726844154866471,
      0.037216670520018084,
      0.18843996560059162,
      -0.15323126595715908,
      -0.2957456460375317,
      -0.269944296000157,
      0.07058737860220113,
      0.07398992331131302,
      -0.3689941037485888,
      0.759662174844031,
      0.05605767766451832,
      -0.01598402142682896,
      0.13125936637882776,
      -0.6483050647806238,
      0.3010144409342708
    ],
    [
      0.03180106295151238,
      0.0807063627605349,
      -0.19803659684766092,
      -0.03744494975506937,
      0.05478115823417117,
      -0.011214797170716061,
      -0.14815331563894377,
      0.12042281820959688,
      -0.06875252211620175,
      0.41197940238732905,
      -0.2153344871651528,
      -0.19446335538105292,
      -0.13519300088098507,
      0.7383605613333183,
      0.14730992822517697,
      0.2843222901358516,
      0.25192278295868453,
      0.7420216051345762,
      0.34262515101111024,
      -0.230024142758861,
      0.33862567753464184,
      -0.2894759370565218,
      -0.9589489258661409,
      0.19370133718269367,
      0.1730786984450686,
      -0.010230208631230062,
      -0.011254626907008404,
      -0.07980135049702188,
      0.4323546729342924,
      -0.3231023597885704,
      -0.43727189130693567,
      -0.6080243064595277,
      -0.11168651582140883,
      0.08313110191257442,
      -0.025770741783583115,
      -0.049801793227349046,
      0.5607504484231428,
      0.43849552572807116,
      0.45515550057711085,
      0.233819473079496,
      0.019108715914095336,
      -0.1855901526546822,
      0.9601013985863777,
      0.12106295614762291,
      -1.4281871005620146,
      -0.8803726580517494,
      0.03764064090254772,
      0.05302583366181183,
      -0.33548107862716703,
      0.5900292366517492,
      -0.06032332112089223,
      -0.5231027062164644,
      0.17181311804607705,
      0.03737842261412361,
      -0.35290893435777915,
      0.19660092180955568,
      0.07850907936055526,
      -0.06302530151812503,
      -0.2882664788950098,
      -0.022580916097509767,
      0.4045583276186303,
      0.05399385159380463,
      -0.1290595999462702,
      -0.18989309853495864,
      -0.06254839449100032,
      -0.11260107457272585,
      -0.09006819795090464,
      -0.5223947742452242,
      0.12759736739135796,
      0.1666148259533571,
      0.24695080365102462,
      -0.18523524460186003,
      0.22680495299811793,
      -0.5273562361268795,
      0.4206985426951238,
      0.1508849782687035,
      0.40964192041133735,
      -0.33892185867639957,
      0.10687227329340009,
      0.144466861654734,
      0.0976212104252688,
      -0.3062491284709085,
      -0.41997682836142114,
      0.13825842526749516,
      -0.325431263025669,
      0.126626144691035,
      0.09091466949730982,
      0.11480014442955074,
      -0.1000254973861286,
      -0.48057707173779574,
      0.028093205506827843,
      0.33167608652025243,
      0.13229868576570333,
      0.004686527099755748,
      -0.17627379732113385,
      -0.34902825476930777,
      0.4246335462865244,
      0.21533501323024,
      0.4388649867773543,
      0.03017422233574496,
      0.06900733550021655,
      -0.19062176801375258,
      0.13747178761733606,
      -0.2856785199889664,
      -0.2442154669624446,
      0.0014339642524614908,
      -0.25299887658875414,
      -0.07074140324633776,
      0.359502965309276,
      0.20421562546169836,
      0.6669619492896784,
      -0.13316081736250832,
      -0.09963348260589201,
      0.20259131394888258,
      0.23665877064042756,
      -0.08031407550903431,
      0.194615974496992,
      0.0982254375208763,
      -0.17535593248865108,
      0.1811244763443,
      0.22486610218083256,
      -0.1297078204735175,
      0.06147410600269198,
      -0.22051142298994691,
      -0.057097220451804265,
      0.08524975081131372,
      -0.1869800808213474,
      -0.07181041545067347,
      0.09632486675468756,
      0.16174359263764584,
      0.10066247731427727,
      0.114235041981159,
      -0.27942317159557706,
      -0.1180782197576687,
      -0.055995116700093994,
      -0.17735582009288556,
      -0.04026062542852655,
      -0.02889077278941176,
      0.21507368329966942,
      -0.22385782372895316,
      -0.09343453992982492,
      0.31015158125785663,
      0.17648594367012801,
      -0.21527045864817645,
      0.27565856883883544,
      0.1302193471217621,
      0.002720513218729029,
      0.07670136062585481,
      0.15327687860303785,
      0.1470361220568222,
      -0.07470392862941745,
      0.2967284745376073,
      0.4671676415219302,
      -0.02689399323181283,
      0.0833768635351411,
      0.32508885851415203,
      0.012543766596490114,
      -0.03173497501170244,
      -0.09938521848309452,
      -0.12030340344264177,
      -0.03437083189629341,
      -0.33033030870888785,
      0.20478954114781367,
      0.04204748776736788,
      -0.2945880781863117,
      -0.20825236727599306,
      0.1899255865825842,
      -0.01460859692574754,
      -0.25083775857157475,
      -0.24455356667099848,
      0.2733737666986687,
      -0.08880648036591585,
      -0.09953022959553762,
      0.17586043102856594,
      0.006032022530315924,
      -0.08353905250697019,
      0.2567215308669454,
      -0.144042682495481,
      -0.2921167275906589,
      -0.31589373647868285,
      -0.0008979659014597133,
      7.419861069668684e-163,
      -7.921129369008654e-163,
      0.2354788436191943,
      -0.6929518812253178,
      -0.420820972236478,
      -0.023385386629485375,
      0.04939210555169199,
      0.33980268699909383,
      0.08732214029543772,
      0.3389079212011871,
      0.06549582718861197,
      0.007493070792329841,
      0.020728005954588687,
      0.2298623038647083,
      0.004204443309585243,
      0.06606119379240614,
      -4.64611391516874e-162,
      8.599844055116995e-163,
      -0.20280574186287437,
      0.9459647888385659,
      0.3178635020271044,
      -0.10049023108020765,
      0.29181527522484435,
      -0.6367920271574197,
      -0.11395201656626074,
      -0.18418351381234274,
      0.04749655149366953,
      -0.009954117540167513,
      0.08489579590751542,
      0.037467761444738575,
      0.12025753897694329,
      0.153255378091596,
      0.09732520242301076,
      0.1499823240215445,
      0.1643883636097435,
      -0.8157863597988783,
      -0.108085768440292,
      -0.06868193512258493,
      0.041185528626235646,
      0.15921564956435222,
      0.1100074008861431
    ],
    [
      0.14239309391738378,
      0.043940749843920185,
      0.28790385853215744,
      0.10264909250392695,
      -0.4376669882580918,
      0.6796472987244625,
      0.2570556407418493,
      -0.38876382128891085,
      -0.4618868178884521,
      -0.996158074557568,
      0.12429238943854809,
      0.039913680922076984,
      -0.08606343094878005,
      -0.0477905897734136,
      -0.16543497321054743,
      -0.1663699613998853,
      -0.4550305583837343,
      -0.7208949762967884,
      -0.6771951018476047,
      -0.07988854212678942,
      -0.046479065200476864,
      -0.02687584750088793,
      -0.4925042437675304,
      0.16361631802674434,
      0.19949024850657995,
      -0.11662859043577396,
      0.03691848813928718,
      0.07320945488649198,
      0.0798543967470903,
      0.6386282200090344,
      0.7366882647411607,
      0.717109087663895,
      0.04566527165412663,
      0.0580971104208574,
      -0.01414511643149077,
      0.26542873212978674,
      -0.18478395527424796,
      -0.49104969383348107,
      -0.42890721638876955,
      -0.37689120794552644,
      -0.07952036231943434,
      0.3814140491989079,
      -0.10201503824659164,
      -0.3620140227352911,
      1.4573033696571478,
      0.4291872787923053,
      0.04296123620858222,
      0.055628574738010736,
      0.032309485280590085,
      0.23355697492489824,
      -0.12607118836510142,
      0.6418751804548332,
      0.17520868611606855,
      0.05069311904394233,
      -0.005165909213513686,
      0.05946956701477346,
      -0.07062014204514831,
      0.14694883477160625,
      0.13070894557276938,
      0.11326176342600283,
      0.03359916178962886,
      0.5379474243328828,
      -0.12043385423525427,
      0.24901631295616036,
      -0.21610373122552215,
      0.5234338036079671,
      -0.020508918471943516,
      0.27508354231182675,
      -0.18125962761253464,
      -0.013532455616333868,
      0.09882169757314709,
      0.17329602229262953,
      -0.23147114141691547,
      0.12670492152441487,
      -0.3987341784156854,
      -0.09837105063530088,
      -0.11898548498886018,
      0.502765756123957,
      -0.1344569015220727,
      -0.3019583488332687,
      -0.10931576301033225,
      0.16332814438359064,
      0.13523950171162744,
      0.14260398195996116,
      -0.005527735567935113,
      0.017080427079857914,
      -0.024573180159803122,
      -0.11781859140391168,
      -0.02251819645663395,
      0.19303816960328565,
      -0.24415122937249825,
      -0.17200630066661984,
      0.0074291198342455195,
      -0.33192842986407445,
      -0.4222947243436582,
      0.3279648528422474,
      -0.12869129026597712,
      0.1825746333768187,
      -0.6709767362860455,
      0.15071598850677784,
      0.6604461226355048,
      -0.8359105108417164,
      0.2959315736484559,
      -0.1898027317929652,
      0.23196488827951706,
      0.1913703427112318,
      -0.006314574549189186,
      0.8501711057214261,
      0.44718996850415954,
      0.06121465221258766,
      -0.32131578034651365,
      0.378091952559952,
      0.3669420099650373,
      0.24171303675047015,
      0.00899817959050981,
      -0.3236795795373002,
      -0.38699916310190313,
      -0.1743290107811904,
      -0.06373581267351217,
      0.16886463179817393,
      0.02953215929703618,
      0.17890868489667358,
      0.20135320342773003,
      0.41819557224943793,
      0.297464165072768,
      0.020522514539836847,
      0.16199268285557122,
      -0.11170061477969251,
      -0.0695494607226782,
      -0.024982532326532084,
      0.2064546054331108,
      0.17340416053233806,
      -0.2531936542212179,
      -0.2518273831692078,
      0.4104218292006094,
      -0.08259436671294358,
      -0.01363382264555257,
      0.023334010455203898,
      0.29500831051754123,
      0.037355045128475435,
      0.17553904696482836,
      -0.07492788295872599,
      -0.4179750451007532,
      -0.5035294610460561,
      -0.21659313555042262,
      0.017158640803583355,
      0.02849150634046335,
      0.2549025733363507,
      0.015115833424528505,
      -0.0878248010258652,
      0.1011567963845495,
      0.06974566418286446,
      0.18537571698261052,
      0.13673064071640725,
      0.06353096056759695,
      0.1347521676341626,
      0.06898540255408557,
      -0.16726301554970865,
      -0.3891207430177816,
      -0.052589268632902066,
      0.326116112087648,
      -0.08818286743919392,
      0.11025080970944154,
      -0.17000141573527097,
      0.10492173451476561,
      0.1277777583538189,
      0.16772225978371746,
      -0.05174636812001541,
      -0.18390485389869132,
      0.10308867282057689,
      -0.033314923975245825,
      -0.03331554343260946,
      -0.06906990713393192,
      0.19645110645691344,
      -0.16537408808848889,
      -0.15723105091733405,
      0.047328821035607344,
      0.12588106040365674,
      0.3786028785267566,
      0.31117763894298,
      0.02142627153519259,
      2.3327374365058853e-163,
      1.0606398086503834e-161,
      -0.7270701760009659,
      0.9357083936449341,
      0.7732381038340117,
      -0.21024789511830605,
      0.030958665401406828,
      -0.617902461797793,
      -0.24312107980896072,
      -0.03289781182104163,
      -0.03394139675299495,
      -0.02611739691040671,
      0.09613840819301162,
      -0.27663800305846503,
      0.3605935969020734,
      -0.08035807288148675,
      -5.14602835175432e-161,
      8.278182212144315e-162,
      0.441105515250789,
      0.2834291133863049,
      -0.3950769535224081,
      0.2823815726925788,
      -0.2520422379661011,
      0.8374037801265799,
      0.24219778979984027,
      0.3295799306664751,
      -0.29624000383801274,
      0.02411212990854388,
      0.19914524778907935,
      -0.19344432077267074,
      -0.25853349717747626,
      0.06784319684739411,
      0.10345072306367536,
      0.024298391146022353,
      0.5615463369358068,
      0.9949294222160824,
      -0.704108454973624,
      -0.23978308647708393,
      -0.17126924003379548,
      -0.009797371766546017,
      0.38826015208519515
    ],
    [
      0.03198156300768881,
      -0.38326243938915083,
      -0.5936565040346996,
      0.24255388368146774,
      0.36639698111875496,
      -0.5812743637002243,
      0.17312376285567208,
      0.19127001374961983,
      0.03165414869840731,
      -0.21922824384984668,
      -0.3423167139211547,
      -0.32718878991478073,
      0.4042163410369086,
      -0.611384773588235,
      -0.1901057514578809,
      0.022722991385589513,
      -0.6104604536615317,
      -1.3836563009400589,
      -1.3570951510851068,
      -0.05753431518072155,
      0.35241556360742604,
      0.3030533384481138,
      0.3049158893541464,
      0.2246619876700175,
      0.20214023473865683,
      -0.19838115320121347,
      -0.048762078392788635,
      -0.7325090666928736,
      0.08883206605311841,
      0.544485929612456,
      0.005391925906599988,
      -0.036603837136009745,
      0.13028879836976945,
      -0.1941588954023621,
      0.1265725280084868,
      -0.549009240407183,
      -0.7649513166719606,
      -0.12062742492729352,
      -0.8664187215705317,
      -0.2569738148810835,
      -0.002096551907495282,
      0.2558044608331588,
      -0.6886445821490094,
      -0.7333913257087924,
      1.9437104709638624,
      1.202519582139876,
      -0.03394470888124716,
      -0.03834799502002146,
      0.9558119612790289,
      -0.12448677132535622,
      -0.2500394674284886,
      0.3968788992084405,
      -0.13566966782937367,
      -0.08311339653495552,
      -0.14510506377467663,
      -0.05488598539295267,
      -0.06382716818803637,
      0.21055880043971628,
      -0.4828383592429864,
      -0.10286004184886624,
      0.01930792063326062,
      0.571680444312664,
      0.09149504954990016,
      0.1936192444070939,
      -0.03341420162544778,
      0.3262874821346414,
      0.0022647104651622274,
      0.3085045606129848,
      -0.20024243997460653,
      0.16285747745352924,
      -0.16345770037264623,
      0.008423154151631015,
      -0.07075689282502336,
      0.20024496792713792,
      -0.39856881032642394,
      0.05080609950413977,
      -0.054480437701856024,
      0.1177791835159817,
      -0.12600401851877374,
      -0.29264952899909086,
      -0.05952959036322407,
      0.15711744548294745,
      0.0957818946311828,
      0.11464535461045146,
      0.7298898349811189,
      0.11436610353401862,
      0.35917817349438785,
      -0.2042717718415001,
      0.044164787861135486,
      -0.8679813589884522,
      0.20933240157668367,
      0.2652477152088005,
      0.461756354091921,
      0.3310069130283164,
      0.049960913905616924,
      -0.18558853417076646,
      0.14186457028085508,
      0.05328934465113989,
      0.24590444545947296,
      0.7087297332414518,
      -0.17345396478786587,
      -0.20725037563608203,
      -0.4703032500746375,
      0.5881669180132233,
      0.1651585887960799,
      -0.09025742969267415,
      0.656428221955757,
      0.33795950915519074,
      -0.2497158684453903,
      0.1419700735568452,
      -0.06415704198372074,
      -0.48605407324389466,
      -0.26546914065198046,
      -0.43506667879947336,
      -0.13765827097273234,
      -0.105845597115273,
      0.015723025786503628,
      0.06973251739373318,
      0.009887919220687439,
      -0.09858789423356105,
      0.21214878260871306,
      -0.1208495150353632,
      0.20885433458725355,
      -0.1000002798308567,
      -0.10627798935112989,
      0.038534603149980896,
      -0.06234866166740778,
      0.05721222496486997,
      0.05358080997747943,
      0.07975247549487197,
      0.022286955227388067,
      0.2953789715948158,
      -0.03601028287620368,
      -0.1486224717960678,
      0.11698502857588645,
      0.08958269062306291,
      -0.05649032981327798,
      -0.08772026344724282,
      -0.0059061003252138585,
      -0.047938406619221725,
      0.024065570427768967,
      0.10073647270656758,
      -0.03706548476115763,
      0.028183280638007117,
      -0.11815737673753547,
      -0.058697444010937204,
      -0.44624103771999324,
      -0.005901325538456912,
      0.15177547808779074,
      0.353251769271068,
      0.00124748902424012,
      0.12723762129584068,
      -0.054672310388020534,
      0.26189149028752695,
      0.10360071107500649,
      0.22170051554460254,
      -0.08137257966405884,
      -0.08540316751267452,
      -0.13378601458993797,
      0.07371370958567847,
      -0.22945582689412888,
      0.07702921583616656,
      -0.09123230033755332,
      0.03464532134765373,
      -0.4326793512285106,
      -0.2402829614376407,
      -0.1670983881104688,
      0.06309620095300676,
      -0.07388765944012374,
      0.20106006549259828,
      0.06986628397703874,
      -0.16620997868061543,
      -0.12490989875394204,
      -0.18721395583154188,
      0.29176809335356935,
      0.0019469025047740899,
      -0.057662857981420866,
      0.14193044411497457,
      0.32302536889792943,
      0.06003178444478013,
      0.0024785316657432127,
      4.352150692682281e-162,
      -2.8417620544337366e-163,
      0.037400584264086045,
      0.9248492863486779,
      0.2011942866740421,
      -0.2228721987287563,
      -0.006144175023514262,
      -0.1829374184055169,
      -0.1990386050739199,
      -0.5017150517346322,
      -0.2453109442313115,
      -0.04460989461614669,
      0.3989805985713248,
      -0.12214327939939347,
      0.4895507993802341,
      -0.0337902068835807,
      -4.1218258561064477e-162,
      -6.278103931099349e-162,
      0.40270742042814955,
      -0.27708013167700984,
      -0.0861580877805947,
      0.39072045275025563,
      0.05982720990827327,
      0.63534146792402,
      0.18886413587394796,
      0.18139980523942803,
      -0.26628497802641565,
      0.053681300133639955,
      0.006116441814073482,
      -0.23482214329361487,
      -0.20938655467742306,
      -0.3135323551809891,
      -0.05472472767837066,
      -0.022917731831237756,
      -0.24885768342752862,
      0.8910832572772158,
      -0.298449317735201,
      -0.17121529744024072,
      0.3065429774365572,
      -0.7910924507350682,
      0.10608957603912693
    ],
    [
      -0.3120398422550127,
      0.22720229902744782,
      0.37443406575379024,
      -0.1027275918335876,
      0.0499724999125802,
      -1.2326945094748112,
      -0.48612216926069074,
      0.33096225373313987,
      0.5974673164826795,
      1.2288129889255694,
      -0.15612174344824664,
      -0.2851764915186703,
      0.1678796540001722,
      0.7114139194331335,
      0.35941119223627555,
      0.43840577988122686,
      0.33042043050907177,
      1.3814609574704098,
      1.352672902137246,
      -0.06515695204713508,
      -0.11160715625823348,
      -0.5280495880895217,
      -0.6832762976153685,
      0.47123696951420485,
      0.3415666536936198,
      0.277041553711266,
      0.22990959036402261,
      -0.4259281907822335,
      0.04151017363861184,
      -0.6062765302337254,
      -0.4358966887184085,
      -0.9936864132835969,
      0.1055071312333249,
      -0.2797703500097407,
      0.05975402087098114,
      -0.4726076373010312,
      0.03373038088207172,
      0.7522881919123505,
      0.239989773303139,
      0.2045244675312128,
      0.07500470290962392,
      -0.31646359947844327,
      0.26716196092083033,
      0.048025468125739754,
      -0.8190655999192136,
      -1.2129649831568048,
      -0.0851964389238741,
      -0.11089330055021807,
      -0.3151237358358146,
      0.19287842005218278,
      0.06753058331748625,
      -0.5388637048684021,
      0.05996875515568633,
      -0.06714610278285739,
      0.23138296035864248,
      0.06585920837184764,
      0.018986376895117167,
      -0.032595472735018,
      0.042293524107577855,
      -0.13892849560821618,
      0.06318034666971123,
      -0.2550573890665288,
      -0.06521841127142333,
      -0.28445605923245326,
      0.44450277470045435,
      -0.11162056994297524,
      -0.06431543323965151,
      -0.1931722403524085,
      0.14988129653808027,
      -0.14508952348615636,
      0.23402794991957357,
      -0.14324097159335478,
      -0.0563640727193001,
      -0.01806560115480267,
      0.18930340554431202,
      0.18755841288500708,
      0.1705501895276895,
      -0.19530801120582186,
      -0.09291846120536323,
      0.24074359915734173,
      0.304432243206289,
      -0.09926576064487273,
      0.05833125969019122,
      0.7588622061696199,
      -0.019459266013653838,
      0.06689495063888208,
      0.28761074804816994,
      0.2028137444618805,
      -0.627074100702942,
      0.15566176512033644,
      0.16851825807097748,
      0.11249194191012289,
      -0.18198877589748222,
      0.09120470465297607,
      0.1794163713269677,
      -0.5105329953059167,
      0.729914810572763,
      0.13485992356209903,
      0.665766780165951,
      -0.17060615621233563,
      -0.8041872716024461,
      0.017220957018762317,
      -0.20139700419892848,
      0.3444687328502728,
      -0.05389540774480072,
      0.32138195073878273,
      -0.3809504850361552,
      -0.6740838828792914,
      -0.3448086163118615,
      0.42971953742070174,
      -0.1819363495524338,
      0.45467457654967985,
      -0.4169171131736894,
      -0.1878535225851413,
      -0.16077966544658842,
      0.15856114575227068,
      0.19678243997753847,
      0.07831256702731448,
      -0.1642695986962102,
      -0.1828017936307834,
      0.05264291562855881,
      -0.12381218524933112,
      -0.2984073832380959,
      -0.024180022639565823,
      0.05546553300158953,
      -0.008249201777648017,
      -0.08250460722222382,
      0.1667861704714011,
      -0.05760659524728831,
      -0.016978418860910855,
      0.04863962809839994,
      0.2604201038390598,
      0.1420044164871684,
      -0.05404448132101957,
      -0.16310264337675487,
      0.1962714915113654,
      -0.14588736558230353,
      0.010856045910956597,
      0.10605442818405143,
      0.05132331864016989,
      -0.18543959868493298,
      -0.03217713827906092,
      0.19785153628731178,
      0.08430387496930025,
      0.174450788326328,
      -0.03611903263540758,
      -0.008564253113967326,
      0.1232950574016651,
      -0.2142106702049626,
      0.3612536347102726,
      -0.10182061496966008,
      0.1951068163584698,
      -0.3833883487085187,
      0.4410719644718966,
      0.25506714504997563,
      0.35844314396595073,
      -0.27015375165195255,
      -0.040488738483394966,
      0.026093246756838592,
      0.05516996255814495,
      -0.4163023156542784,
      -0.37350617787151486,
      0.2801745131798061,
      -0.23023829826101067,
      -0.09679313175686238,
      -0.2565979885690219,
      -0.3014293573440889,
      0.038061106117917826,
      0.09421690193204871,
      -0.05352674771225991,
      -0.19889862286117477,
      -0.29068858642657547,
      -0.14640822580317628,
      0.1113701878473611,
      0.07382815786458494,
      0.10034877166733526,
      -0.20356814073979845,
      -0.3658231966541434,
      -0.20174993423837032,
      -0.29008821613642677,
      -0.02495227396976675,
      5.007298013138657e-163,
      3.296953816215115e-162,
      0.3408846855563607,
      -0.7604253306650487,
      0.1293523234089778,
      0.3073018340789971,
      0.22511598696996143,
      0.09878011886743188,
      0.2193924142164881,
      0.3677377331239023,
      -0.10162655980909654,
      0.02844725419725992,
      -0.1020306432666624,
      0.19891600016164107,
      0.3624782933079019,
      -0.028314221304031276,
      8.029110592156327e-163,
      1.5270641654328572e-162,
      0.3086199161812642,
      0.4724917862896315,
      -0.13345608606318093,
      -0.23066468737394524,
      0.4090847934646973,
      -0.4960147252823977,
      -0.20862291190104212,
      -0.2660971606538728,
      -0.04034230076251793,
      -0.05366882702020188,
      -0.464671766026299,
      0.444732249422525,
      0.4430539943065679,
      0.39432955898726313,
      -0.21703443395435146,
      -0.16032985693300428,
      0.5307028361749461,
      -0.9570203117156216,
      0.050538791319925884,
      -0.18001862527514922,
      -0.20490258709707734,
      -0.16911482207430897,
      -0.3967648642100441
    ],
    [
      0.35377641958992584,
      -0.23037747944953962,
      -0.14963518343013205,
      0.013924096022247682,
      0.25065743282572184,
      -0.37114866573542465,
      -0.3005474300504622,
      0.4700507460377095,
      -0.38182003900739087,
      -0.4290252008204615,
      -0.27110783882962497,
      -0.2654939062888101,
      -0.16888025334747542,
      -0.11009062069119371,
      -0.25896619870641296,
      -0.08514399979096295,
      -0.42026408243391655,
      -0.5854579881479463,
      -0.5520553592134922,
      0.04131343901916085,
      -0.03835637929598145,
      0.022385198941097573,
      -0.10964548619416084,
      0.128899367703826,
      0.07711462198029095,
      -0.8141278257872238,
      -0.3843791494146012,
      0.20622547349916528,
      0.15904144565019834,
      0.5125073934350278,
      0.024778542567545317,
      -0.02136173079825907,
      0.07158756835130999,
      -0.13718523993084297,
      0.20766585254367628,
      -0.6651371064457392,
      -0.7390637030890702,
      0.038275523876993574,
      -0.5923985428243741,
      -0.20603455571127532,
      -0.07796218439210632,
      0.22835425635248277,
      -0.37931237620829317,
      -0.42919681454765723,
      1.8146166039852063,
      0.6320365300573539,
      0.07973033154868289,
      0.22585353813382358,
      0.6796325491392518,
      -0.23269382126788676,
      0.2825106032597548,
      0.25721125927935135,
      -0.050095360745277415,
      -0.03638414239839776,
      0.27404072598216245,
      0.050643672451977095,
      0.2027432901375134,
      -0.24807199479962574,
      -0.146735770254098,
      0.11556279674148161,
      0.34204096596046757,
      -0.0803231432347825,
      0.323100476714538,
      0.3422305441492333,
      0.011281656207503609,
      0.07310408455394218,
      -0.15362020526820014,
      0.24035611378456287,
      -0.11796510910592925,
      0.5628563862966142,
      -0.16347603687825715,
      0.24636831323933917,
      0.16614201569043716,
      0.15818436116994555,
      -0.24046387317777385,
      -0.1579506717904732,
      -0.0522234059829068,
      0.007907049040028523,
      -0.6484364453505056,
      -0.02263389142325991,
      0.14249446391611725,
      -0.009174196050745858,
      -0.19822805018268272,
      0.22478095217372998,
      0.3096743515833735,
      -0.10651895713419104,
      0.4109108370233487,
      -0.011171573510704812,
      -0.07243370314293385,
      -0.370107936446487,
      0.03336715108376935,
      -0.008500608717302443,
      0.5075813720882143,
      0.47640577903787595,
      0.023178570276772493,
      0.0576646096858986,
      0.2754539524551738,
      -0.2356573926957003,
      0.31624571603553603,
      0.8323043808930997,
      -0.22280909417426667,
      -0.17099771426599056,
      -0.5313246130212468,
      0.7617909674543207,
      -0.07589798065967061,
      0.23240588926289044,
      0.6213970949250358,
      -0.08817790067722554,
      -0.30259068014253404,
      -0.07482759928508936,
      0.18402360392297312,
      -0.6484499839250506,
      -0.18360700987191605,
      -0.15398004325507178,
      0.2292423660965005,
      -0.13631825435886497,
      -0.32585649851410153,
      -0.040919901150416146,
      -0.13407439604371532,
      -0.4081751467886377,
      -0.04436827909567446,
      0.14142909553898916,
      0.022990854948017007,
      -0.45589181588885413,
      -0.06830244755710373,
      -0.13229277450731114,
      -0.031892011009849286,
      0.35307460054839973,
      0.0024445519668042904,
      -0.10503240487087263,
      0.052662235828202196,
      -0.012754611423661116,
      -0.013537184649437638,
      0.1169240980291987,
      0.06360767338188175,
      0.062239881708815926,
      0.3538859125793581,
      0.4426968745968702,
      0.17215697392827745,
      0.12488165876840666,
      -0.1488672993724777,
      -0.19653332777432372,
      0.30334932048410784,
      0.18786764660985128,
      0.08031744150690036,
      0.2992255314149881,
      -0.14932060837466674,
      -0.11051426567316605,
      -0.03698162697796995,
      -0.007748308713079255,
      -0.07906149668890142,
      0.46260686501235304,
      -0.23883952927705857,
      0.025604908475346525,
      0.05355024843658643,
      0.40302316620606565,
      0.07278000791968219,
      -0.07470130148094331,
      -0.3550428679722664,
      -0.04973355563811222,
      -0.08736943945853547,
      -0.09619743261040377,
      -0.05760872928854474,
      -0.07951503585245831,
      -0.33252940335736053,
      -0.5677199172471304,
      -0.1460406069624244,
      0.024116711857369372,
      -0.08696531975970655,
      0.3416315459753327,
      0.0649030574080736,
      0.09348596435349255,
      -0.28401607618597086,
      -0.24964810568220955,
      0.27567971138480374,
      0.07003876806173827,
      0.2528790453377316,
      0.48627987658746497,
      0.1536558294089896,
      0.24330818852198666,
      0.019137942347244724,
      3.5667818861579587e-163,
      -3.3285462387791246e-162,
      0.2523657203283038,
      0.8257595525377375,
      -0.28915774322814664,
      -0.30853518524129286,
      -0.20335452676890084,
      -0.6383280612825799,
      -0.2537888247903564,
      -0.3553929984942296,
      0.033895711206199455,
      -0.04457967826568872,
      0.3438967073151424,
      -0.09867665132173457,
      0.028614796529907123,
      0.06092599513552968,
      9.900738076344545e-162,
      -8.837008595743031e-163,
      0.4310770796442034,
      -0.2573435131860559,
      0.1296137908601613,
      0.30378552720886354,
      0.421663000613518,
      0.42220997650748,
      0.06382112853511829,
      0.2999381149967229,
      -0.5000780397282713,
      0.04862393433309915,
      -0.22904191134667298,
      -0.08693781474284272,
      -0.05170591543568955,
      -0.1455312238247823,
      0.18654235128842594,
      0.15993924903153256,
      -0.5325325644501955,
      0.8664084147847725,
      -0.6398248645035439,
      -0.5153279062690306,
      0.2986344005400564,
      -0.413111933679023,
      -0.4053959632711337
    ],
    [
      -0.2614261788794934,
      0.25605106106423176,
      0.31932228076199237,
      -0.3950879430455444,
      0.16403462920494585,
      -0.6275929466156355,
      -0.6016331340541871,
      0.4036009094790662,
      0.16723030258237423,
      0.5060939993866961,
      0.07949277444321055,
      -0.06965797401396695,
      0.054832756706383906,
      0.6453901362373909,
      0.5584367534579288,
      0.7061894237552155,
      0.8007683296902037,
      1.108859277020022,
      1.0216496192618845,
      -0.32953689571789674,
      0.5597474325285602,
      -0.564402370942223,
      -0.698334436701768,
      0.3573214800907103,
      0.4209924895238571,
      -0.14090908830380924,
      -0.046643945513939016,
      -0.03830375773461656,
      0.2874295760337753,
      -0.35724103853563616,
      -0.34903869731830156,
      -0.7665515912181597,
      -0.39120315092049845,
      -0.2305181494398611,
      0.1444510150733085,
      -0.31598677144673126,
      0.6479970117351818,
      0.6540414798564939,
      0.33824960661393094,
      0.43019878082710883,
      0.18330185329238802,
      -0.2693954153490184,
      0.3073182322080866,
      0.07913677757963579,
      -0.5077281285115133,
      -0.35454136559233074,
      -0.003941531221369765,
      -0.008075574097397273,
      -0.08125780183660751,
      -0.47406672027130936,
      -0.1302964140073886,
      -0.3664548712494245,
      -0.4085642957553435,
      0.1843312935712258,
      0.17906570143087353,
      -0.2268874335930903,
      -0.26059517427248413,
      -0.2416566111126996,
      -0.28164056431924467,
      0.04081888467857082,
      0.031090664431984633,
      -0.19154032836480533,
      -0.03054065704595643,
      0.024977760880843816,
      0.01362978325771701,
      -0.2724507509543485,
      -0.014403434921924387,
      -0.14981045840362997,
      -0.43137726122837744,
      -0.22549749335376978,
      0.45792413747097416,
      -0.09469746677872713,
      -0.03736520926828002,
      -0.18304036178928132,
      0.14663581484913796,
      -0.1447902449037633,
      0.4720630692037779,
      -0.3243334517396756,
      0.028230700589604526,
      0.103535646164549,
      -0.03925300732691048,
      0.21224370837081957,
      -0.1706817257645061,
      0.7895490655429902,
      0.7567667988003517,
      -0.3317112360575312,
      0.14495123661727907,
      0.08591962068461995,
      0.17137088451255514,
      0.8597035020246645,
      -0.18871752381241086,
      0.2789819702920849,
      -0.10721433131309838,
      0.7007125835069202,
      0.3175759366469302,
      -0.11688029913986778,
      0.549201946388822,
      -0.5653625664852922,
      -0.4842234140312846,
      0.049684889199218506,
      -0.1089870693039403,
      0.28315038151897776,
      -0.03510431403631293,
      0.7536999469831657,
      0.008748318859615372,
      0.1650629686412996,
      0.3399400498932729,
      -0.5967399193156154,
      0.036862503148027644,
      0.2737205221706984,
      0.1727640440819113,
      -0.8380425802212532,
      0.1673865417503321,
      0.8825674168859853,
      0.14705529270367923,
      -0.003564628654027425,
      0.21465952193846102,
      0.07316213213257468,
      0.0030611537515060584,
      0.3422969610663485,
      0.26337175536752677,
      0.19865379129587063,
      0.03422321558195084,
      -0.014433599940332548,
      -0.013280704982968712,
      0.05259483079714521,
      0.1472972546081376,
      0.02899669670026867,
      -0.006208166841880281,
      -0.01452293290879329,
      -0.014343351931649692,
      0.1517261743245045,
      -0.2517587233902377,
      0.037670663737760936,
      -0.0012542522546057076,
      0.012165883580144414,
      0.03548753851559812,
      -0.003611481363685215,
      0.404833133486927,
      -0.3110479509425775,
      0.021605419034067947,
      0.1813787878167624,
      0.08028172789926029,
      -0.11576607449460245,
      0.02911501328374655,
      -0.029728809229523697,
      -0.17513396515762225,
      -0.01413787165408224,
      -0.3897510891562374,
      0.031180899404068457,
      0.015171302399138673,
      -0.15307010280755687,
      -0.1311115039770342,
      0.3272800165575723,
      0.15618462956584347,
      -0.17413249619230123,
      0.4299972760877699,
      -0.17282277860416612,
      -0.04737205818334017,
      -0.387228875233283,
      -0.1617272926408846,
      -0.47952035748188926,
      0.11242443041163923,
      0.46919103734274037,
      -0.12741065866421014,
      0.29854574928904226,
      0.31257702436519225,
      -0.10776856554694399,
      0.1712426804207208,
      0.5136266076374145,
      -0.4618529895659769,
      -0.3117618543098887,
      -0.08292376059604242,
      -0.22662655248380537,
      0.09693539002626626,
      0.11502166717455185,
      -0.15167769316845184,
      0.04771493175080836,
      -0.12087334646615142,
      -0.25803285502887563,
      -0.003952629822704651,
      -1.0866930668715364e-161,
      1.954055814643666e-162,
      0.7867881697046338,
      -0.39775895650214593,
      0.03193448929602357,
      0.08519436216867367,
      -0.135520477927554,
      0.08200413034496158,
      0.09126484501079667,
      0.10424717508689316,
      -0.09280344130537785,
      0.008927388871612202,
      0.08330507293198576,
      0.19280316883460258,
      -0.07164869110154133,
      -0.06566918834321939,
      1.7572215671169484e-161,
      6.5624462411266745e-161,
      -0.09944213247168993,
      0.5961955657363767,
      0.16092711360577058,
      -0.12976378402021538,
      0.3611058952564322,
      -0.21983442926308044,
      -0.16873938322615337,
      -0.1056640842317666,
      -0.0716711933073983,
      -0.008032905273256917,
      0.023734074368659288,
      0.4824935599079878,
      0.1760490273861193,
      0.10434352079099417,
      -0.29198101379418323,
      -0.29468326213456625,
      0.5484755974410671,
      -0.1450849147155433,
      0.04890453952123834,
      0.2210224271502696,
      -0.0689552447198436,
      -0.3761637356706176,
      -0.7938449764341813
    ],
    [
      -0.16627669552599833,
      -0.2376029746580765,
      0.1341905019622593,
      -0.11639520402757783,
      0.016181175285183376,
      0.06751751428322193,
      -0.01498020373033841,
      -0.22177911207043557,
      0.21566066874876783,
      0.2575630655368481,
      -0.3144197095046171,
      -0.31265123162456493,
      -0.4524914918255454,
      -0.1482189005759253,
      0.29458963370538876,
      0.33221561084946943,
      0.5941284734587681,
      1.270788429880359,
      1.478581722547081,
      0.06065602393795165,
      0.5647754151825961,
      0.002211383061802156,
      -0.07782121142369008,
      -0.07985601027012457,
      -0.16407043677250135,
      0.06541700207844157,
      -0.01626245540707706,
      -0.4850036608378345,
      -0.18847889208593444,
      -0.30822821473219253,
      -0.17169313000301523,
      0.32007831915163276,
      -0.23380240623205625,
      0.043287508200742904,
      -0.2144448849343352,
      0.3104619210153313,
      0.41587528579171207,
      0.13184913940529072,
      0.46616517076763814,
      0.22934214138459227,
      0.525917475890963,
      -0.11288424336687462,
      0.20287126654150883,
      0.6357912038207818,
      -0.6979434865408369,
      -0.5617384175977169,
      0.18181423137790778,
      0.008358556713334884,
      -0.7124316307772766,
      0.25993155093792364,
      -0.3727057920387989,
      -0.496818346003128,
      0.1414133099476945,
      -0.030870683631220117,
      0.14027645676396386,
      -0.004402921606863686,
      0.10263162178590743,
      0.08408227897304806,
      -0.08630974479861586,
      -0.10628865624655552,
      -0.05829137669034436,
      -0.07011473123932134,
      -0.11556277743805655,
      0.06145690105670331,
      0.15716505022257202,
      0.09831818921934439,
      -0.05794841195288523,
      -0.20875380627030343,
      0.47238292984773284,
      -0.5989873552342901,
      0.004134441570109168,
      -0.06582366092733054,
      -0.09765704341170094,
      -0.17637643363833014,
      0.28182941642397713,
      0.10055754990335208,
      0.04184913265672025,
      -0.07337497286885979,
      0.16783099087729741,
      -0.1547553945172532,
      -0.233125481388872,
      -0.08266872375377879,
      0.23152976535494352,
      -0.0013032712575760008,
      -0.3573809338268872,
      -0.13834095158159085,
      0.19944349949009235,
      -0.29013635028187534,
      -0.19533374845335447,
      0.03865413312551707,
      0.24591434692044722,
      -0.21578872095727475,
      0.4892998053940491,
      -0.5298240593416164,
      -0.18023074174829573,
      -0.05709550086273165,
      -0.22468446623714977,
      -0.03770393675858344,
      0.040522549280312715,
      0.062368836024963896,
      -0.1694919060387019,
      0.13940188566704714,
      -0.15464303070269214,
      -0.5959306657152399,
      -0.46497116441388536,
      -0.23884564869520467,
      -0.2537238920079334,
      0.32416049206545805,
      -0.17330262094702492,
      -0.6946750620713927,
      0.07747846890878847,
      0.3155130101316948,
      -0.3117794165785329,
      -0.07877277154178167,
      0.08590641038252651,
      -0.11903451544196367,
      0.16965698498068973,
      -0.3515333359858036,
      -0.06796596880005776,
      -0.14240924150026119,
      0.2486788082856477,
      0.06169164552860418,
      0.08853658259914532,
      0.05816617017528221,
      -0.06618341042899896,
      0.00938074520504999,
      -0.1254742704699446,
      0.2474940976322753,
      -0.19505214990834946,
      -0.2726816493566935,
      0.2061888899798817,
      0.29521195230592306,
      0.07522265327847512,
      -0.007081328767583514,
      -0.049364699897164924,
      -0.3317590780639112,
      -0.018103402228670067,
      -0.4734075091218071,
      -0.0873195283379866,
      -0.17507912658991756,
      -0.01885411052215897,
      0.32957584109521715,
      -0.12345347265251053,
      0.052927225276165696,
      -0.18513424054271302,
      -0.09463539781093598,
      -0.10522581394120595,
      -0.010132583147227665,
      0.08683908291006295,
      0.007491324436233398,
      0.23748937058868438,
      0.10126334618518414,
      -0.2269087010327281,
      0.168077984726143,
      0.15289776526712776,
      -0.0703139416438256,
      -0.25038741352246047,
      0.24860557415862888,
      -0.03702746918774482,
      -0.12617502888203924,
      -0.09832644598815968,
      0.413668977143663,
      -0.035516275821230195,
      -0.03883746465636396,
      -0.13043598451130514,
      -0.052262584259171393,
      -0.15137297925852566,
      0.23570224070062876,
      -0.109577828401947,
      -0.026614442354939316,
      0.058126050177081987,
      -0.015613073307502756,
      0.2968045983582177,
      -0.1766449218627091,
      0.0421808756371011,
      0.13323135843304273,
      -0.11349257687788482,
      0.23111060657543037,
      -0.02987586901085757,
      -0.4846074463367886,
      -0.03319424888878009,
      -1.6052491996435531e-162,
      -5.848264606009961e-162,
      -0.15890386794595726,
      -0.2057957733674651,
      1.0647236887141542,
      0.07861722471115039,
      0.32415496055948106,
      0.1319157218880077,
      0.20381332822994785,
      0.31672837931315284,
      -0.39151358250663115,
      0.053970933549311255,
      -0.3895784366857563,
      0.02696036816602614,
      0.0500292252225043,
      -0.0007361804087827093,
      -2.315295667988943e-162,
      -2.187502543229955e-161,
      -0.4229998760188265,
      0.2465619686477876,
      -0.5682957170816398,
      -0.36370132417866646,
      0.11581972646548987,
      -0.7203642527381877,
      -0.16091815664791156,
      -0.3143173005407468,
      0.41377953351767505,
      -0.05994026301549259,
      -0.3077011249812405,
      0.13822282304395528,
      0.3388275215257907,
      0.3605710865296894,
      -0.05624954351598592,
      -0.3089591375844676,
      0.6587859173529368,
      -0.752605512351694,
      0.27752006601241735,
      -0.27679830392228794,
      -0.07073940621174267,
      0.25461894520922274,
      0.13938213208891514
    ]
  ],
  "modelVersion" : "2026.07-v3.1-ranker-11",
  "outputWeights" : [
    -1.548527222281815,
    1.480318434815034,
    -1.683922282881998,
    -2.1265403393177116,
    1.8141076084029297,
    -1.7299692932060946,
    1.1593192683537714,
    2.329380902388253
  ],
  "temperature" : 1.04,
  "thresholds" : {
    "bothKnown" : 0.4345716030240598,
    "oov" : 0.26036862510101844,
    "protected" : 1,
    "punctuation" : 0.9570685792577014,
    "punctuationAmbiguous" : 0.99961419486554,
    "punctuationBothKnown" : 0.997644875967201,
    "punctuationOOV" : 0.8486876417715221,
    "punctuationShort" : 0.9883935505325269,
    "short" : 0.9987406506223732,
    "standard" : 0.9281974736059899
  },
  "trainExamples" : 179460,
  "trainingManifestSHA256" : "0ce51e94651d4f80a3987c0d470e2d9470b3cd0b9575cfb0533b9669739cc582",
  "validationExamples" : 86157,
  "weights" : [
    -1.2972384285503349e-12,
    0.10035877124287286,
    -0.1773157062024528,
    0.10108966579637343,
    0.34636052149164875,
    -0.8207094827428084,
    -0.14303237637340854,
    1.7874056973355357e-14,
    -7.854414551113388e-13,
    1.0022419686776556,
    2.4919793461531657e-13,
    1.388937903839636e-13,
    5.98974603407107e-14,
    -2.81193161182897e-13,
    0.4042500869863599,
    0.4431493589122222,
    0.4199274665878961,
    0.585471964141485,
    0.6075058282915315,
    -6.0855646710223e-14,
    0.2090868671456472,
    0.11486703826282116,
    0.11486602925487932,
    0.5626328739560701,
    0.5911100114730868,
    0.24603818060958266,
    0.12724339048603636,
    -0.09215784293246174,
    0.029424774071162195,
    -0.5834125052319684,
    -0.7228029147254158,
    -0.6873833594382177,
    0.04066707021858108,
    0.058950440587464285,
    0.07364547776375095,
    -0.5045299394577811,
    0.1526106000110647,
    0.5882429439049783,
    0.22370514375579434,
    0.3222684906964811,
    0.14193761751406037,
    -0.037767141305597704,
    0.24279300470853168,
    0.25640936449022445,
    -1.225596929838812,
    -0.17373424550004837,
    -0.0316646360962125,
    0.03166467839016779,
    4.9524616281439825e-14,
    -0.0716031628831549,
    -0.015563778909476439,
    -0.4469009416513497,
    0.03956266621343348,
    0.04361751707807166,
    -0.03517940878378862,
    -0.027612044344985518,
    -0.08700178302928521,
    -0.06976048901143707,
    -0.01372492453372318,
    -0.1488422580865076,
    0.001878933528237986,
    -0.22438951189558062,
    0.07428878514135832,
    -0.052491252537092,
    0.2465377592728204,
    -0.13774688352703582,
    -0.08032765743054474,
    -0.2005165182649221,
    0.35746280237718653,
    -0.26483555839310824,
    0.03215423202043392,
    -0.08115268197935252,
    0.1584357056655061,
    -0.027325906284899427,
    0.24580530059840625,
    0.02581774942395322,
    0.0685362240681239,
    -0.03887826723084874,
    0.12174978552402561,
    0.13893279546486328,
    0.05031063260559489,
    -0.08247303823847084,
    0.08288771777766771,
    0.30101613154828216,
    0.20395241858053806,
    0.5083710175878448,
    0.27681958617393,
    -0.6387694506255741,
    -0.07165692266040939,
    -0.017999856477835665,
    0.4632709636895861,
    0.09750477404866773,
    0.5602364484684392,
    0.34783890569746007,
    0.5394068019470578,
    -0.6839852798758267,
    0.8930017420875582,
    -0.13331185704798032,
    0.15828495619385857,
    -0.12969697114581435,
    -0.4343250172872831,
    0.46180448664234885,
    -0.25163559782730527,
    0.19763242829654715,
    -0.14667422030546978,
    0.14757035097472646,
    -0.25571043793069215,
    -0.3075999345973019,
    -0.27524101583747784,
    0.3781420213956565,
    0.5548711696875749,
    -0.28908166267299984,
    -0.46856722143782803,
    0.1014289105035833,
    -0.065024694386323,
    0.05693521604168645,
    0.057952113581905156,
    0.01896097759028873,
    -0.13586007513457232,
    -0.2537473282378204,
    0.10950662581169693,
    -0.10723767651826237,
    -0.10353121633876096,
    0.039390726536949645,
    -0.10082188031623049,
    0.15006890564285144,
    -0.10244055605639546,
    0.13333873575003158,
    -0.20613697988481777,
    -0.16330045251493513,
    -0.037761695922958166,
    0.019486728988353963,
    -0.024351670354241108,
    0.0961983174711648,
    -0.16253729057589456,
    -0.019153457611145785,
    -0.043184458431676676,
    -0.21333917396941054,
    -0.1120816135342393,
    0.03681251109312377,
    -0.14982719274094244,
    0.17281759942193514,
    0.09748117282540272,
    0.15141200342323843,
    -0.007778434046364173,
    -0.07570835419667041,
    -0.3028278714494615,
    0.2539744771874134,
    -0.030391822291766266,
    0.16288145859035952,
    -0.03992548949986225,
    0.2117751217645041,
    -0.1752924252423759,
    0.17613108004644484,
    -0.0769870442611334,
    0.1134556932282916,
    0.0023638000609275795,
    -0.04230869898580989,
    0.18147815970160328,
    0.0965802706854641,
    -0.22433268052244018,
    -0.3774366065500805,
    0.13399623121707252,
    0.12225746783023637,
    -0.06201963600964449,
    -0.1305613570653241,
    -0.20274102302339914,
    -0.025655702923447786,
    -0.05644764763612906,
    -0.1454380756127792,
    -0.07625549566585627,
    -0.1825917256843861,
    0.0624631294632216,
    -0.3191529815796619,
    0.1499116302346298,
    -0.34968666378302254,
    0.07054290788731543,
    0.16619830962336443,
    -0.295680380537744,
    -0.07320272404469735,
    -0.01587217679932751,
    0,
    0,
    0.1990353445017696,
    -0.7659013514843506,
    -0.46730958223847135,
    0.2482571451141387,
    -0.11494727606866437,
    0.6299878408914708,
    0.15489048614193449,
    0.3000780105738591,
    -0.147074311032455,
    0.028819911153955196,
    0.3826290501037143,
    0.2956803805377444,
    0.07320283743416012,
    0.015872176799327054,
    0,
    0,
    -0.19903447214322265,
    0.7659025131233594,
    0.46730958223847185,
    -0.24825714511413755,
    0.11494728189721187,
    -0.6299873279255146,
    -0.1548904861419329,
    -0.3000780105738597,
    0.1470742456393397,
    -0.0288199111539553,
    -0.38262898155149505,
    0.01167325649990195,
    0.4642356492751159,
    0.47563978403156265,
    -1.2972384285493061e-12,
    2.6533422525239126e-15,
    -1.0150653843454682e-12,
    -0.6371520709696792,
    1.1670247843028012e-13,
    1.3578245461283719e-13,
    -5.843486086483946e-14,
    -7.895732401350404e-14,
    -1.2826219442386123e-12
  ]
}